<?xml version="1.0"?>
<opencv_storage>
<result_haar_25_995_5 type_id="opencv-haar-classifier">
  <size>
    24 24</size>
  <stages>
    <_>
      <!-- stage 0 -->
      <trees>
        <_>
          <!-- tree 0 -->
          <_>
            <!-- root node -->
            <feature>
              <rects>
                <_>
                  0 1 24 21 -1.</_>
                <_>
                  0 8 24 7 3.</_></rects>
              <tilted>0</tilted></feature>
            <threshold>3.4597331285476685e-01</threshold>
            <left_val>-9.5593512058258057e-01</left_val>
            <right_val>7.6595091819763184e-01</right_val></_></_>
        <_>
          <!-- tree 1 -->
          <_>
            <!-- root node -->
            <feature>
              <rects>
                <_>
                  9 4 14 8 -1.</_>
                <_>
                  16 4 7 4 2.</_>
                <_>
                  9 8 7 4 2.</_></rects>
              <tilted>0</tilted></feature>
            <threshold>-2.4137899279594421e-02</threshold>
            <left_val>5.9311711788177490e-01</left_val>
            <right_val>-7.4057561159133911e-01</right_val></_></_>
        <_>
          <!-- tree 2 -->
          <_>
            <!-- root node -->
            <feature>
              <rects>
                <_>
                  0 13 23 8 -1.</_>
                <_>
                  0 17 23 4 2.</_></rects>
              <tilted>0</tilted></feature>
            <threshold>-8.0723807215690613e-02</threshold>
            <left_val>5.1721012592315674e-01</left_val>
            <right_val>-9.2059868574142456e-01</right_val></_></_></trees>
      <stage_threshold>-1.1793010234832764e+00</stage_threshold>
      <parent>-1</parent>
      <next>-1</next></_>
    <_>
      <!-- stage 1 -->
      <trees>
        <_>
          <!-- tree 0 -->
          <_>
            <!-- root node -->
            <feature>
              <rects>
                <_>
                  0 3 8 10 -1.</_>
                <_>
                  0 8 8 5 2.</_></rects>
              <tilted>0</tilted></feature>
            <threshold>4.1980661451816559e-02</threshold>
            <left_val>-9.1666638851165771e-01</left_val>
            <right_val>5.2650827169418335e-01</right_val></_></_>
        <_>
          <!-- tree 1 -->
          <_>
            <!-- root node -->
            <feature>
              <rects>
                <_>
                  0 4 24 16 -1.</_>
                <_>
                  8 4 8 16 3.</_></rects>
              <tilted>0</tilted></feature>
            <threshold>2.8678289055824280e-01</threshold>
            <left_val>-5.0576567649841309e-01</left_val>
            <right_val>8.5500758886337280e-01</right_val></_></_>
        <_>
          <!-- tree 2 -->
          <_>
            <!-- root node -->
            <feature>
              <rects>
                <_>
                  1 9 12 12 -1.</_>
                <_>
                  1 9 6 6 2.</_>
                <_>
                  7 15 6 6 2.</_></rects>
              <tilted>0</tilted></feature>
            <threshold>3.3058900386095047e-02</threshold>
            <left_val>-6.6344821453094482e-01</left_val>
            <right_val>6.6220521926879883e-01</right_val></_></_>
        <_>
          <!-- tree 3 -->
          <_>
            <!-- root node -->
            <feature>
              <rects>
                <_>
                  14 6 9 13 -1.</_>
                <_>
                  17 6 3 13 3.</_></rects>
              <tilted>0</tilted></feature>
            <threshold>-6.2198799103498459e-02</threshold>
            <left_val>8.3467960357666016e-01</left_val>
            <right_val>-3.8386431336402893e-01</right_val></_></_></trees>
      <stage_threshold>-1.2512010335922241e+00</stage_threshold>
      <parent>0</parent>
      <next>-1</next></_>
    <_>
      <!-- stage 2 -->
      <trees>
        <_>
          <!-- tree 0 -->
          <_>
            <!-- root node -->
            <feature>
              <rects>
                <_>
                  1 4 14 8 -1.</_>
                <_>
                  1 4 7 4 2.</_>
                <_>
                  8 8 7 4 2.</_></rects>
              <tilted>0</tilted></feature>
            <threshold>-2.4584200233221054e-02</threshold>
            <left_val>5.6945800781250000e-01</left_val>
            <right_val>-7.3374509811401367e-01</right_val></_></_>
        <_>
          <!-- tree 1 -->
          <_>
            <!-- root node -->
            <feature>
              <rects>
                <_>
                  0 4 24 17 -1.</_>
                <_>
                  8 4 8 17 3.</_></rects>
              <tilted>0</tilted></feature>
            <threshold>2.7913570404052734e-01</threshold>
            <left_val>-4.9500319361686707e-01</left_val>
            <right_val>7.5761079788208008e-01</right_val></_></_>
        <_>
          <!-- tree 2 -->
          <_>
            <!-- root node -->
            <feature>
              <rects>
                <_>
                  1 6 9 10 -1.</_>
                <_>
                  4 6 3 10 3.</_></rects>
              <tilted>0</tilted></feature>
            <threshold>-4.0165450423955917e-02</threshold>
            <left_val>7.7792167663574219e-01</left_val>
            <right_val>-3.9101150631904602e-01</right_val></_></_>
        <_>
          <!-- tree 3 -->
          <_>
            <!-- root node -->
            <feature>
              <rects>
                <_>
                  1 4 22 12 -1.</_>
                <_>
                  1 8 22 4 3.</_></rects>
              <tilted>0</tilted></feature>
            <threshold>5.0563979893922806e-02</threshold>
            <left_val>-9.4055700302124023e-01</left_val>
            <right_val>3.3586931228637695e-01</right_val></_></_>
        <_>
          <!-- tree 4 -->
          <_>
            <!-- root node -->
            <feature>
              <rects>
                <_>
                  0 10 24 9 -1.</_>
                <_>
                  0 13 24 3 3.</_></rects>
              <tilted>0</tilted></feature>
            <threshold>2.9541410505771637e-02</threshold>
            <left_val>-9.1141140460968018e-01</left_val>
            <right_val>3.6416900157928467e-01</right_val></_></_></trees>
      <stage_threshold>-9.4268792867660522e-01</stage_threshold>
      <parent>1</parent>
      <next>-1</next></_>
    <_>
      <!-- stage 3 -->
      <trees>
        <_>
          <!-- tree 0 -->
          <_>
            <!-- root node -->
            <feature>
              <rects>
                <_>
                  1 13 14 6 -1.</_>
                <_>
                  1 13 7 3 2.</_>
                <_>
                  8 16 7 3 2.</_></rects>
              <tilted>0</tilted></feature>
            <threshold>6.3085327856242657e-03</threshold>
            <left_val>-8.1197422742843628e-01</left_val>
            <right_val>4.9941220879554749e-01</right_val></_></_>
        <_>
          <!-- tree 1 -->
          <_>
            <!-- root node -->
            <feature>
              <rects>
                <_>
                  0 4 24 6 -1.</_>
                <_>
                  0 7 24 3 2.</_></rects>
              <tilted>0</tilted></feature>
            <threshold>5.4655238986015320e-02</threshold>
            <left_val>-9.4369268417358398e-01</left_val>
            <right_val>3.1699448823928833e-01</right_val></_></_>
        <_>
          <!-- tree 2 -->
          <_>
            <!-- root node -->
            <feature>
              <rects>
                <_>
                  0 11 24 12 -1.</_>
                <_>
                  0 17 24 6 2.</_></rects>
              <tilted>0</tilted></feature>
            <threshold>-1.6876089572906494e-01</threshold>
            <left_val>2.9540440440177917e-01</left_val>
            <right_val>-9.5471787452697754e-01</right_val></_></_>
        <_>
          <!-- tree 3 -->
          <_>
            <!-- root node -->
            <feature>
              <rects>
                <_>
                  14 5 9 6 -1.</_>
                <_>
                  17 5 3 6 3.</_></rects>
              <tilted>0</tilted></feature>
            <threshold>-2.3473840206861496e-02</threshold>
            <left_val>6.8339020013809204e-01</left_val>
            <right_val>-6.3760322332382202e-01</right_val></_></_>
        <_>
          <!-- tree 4 -->
          <_>
            <!-- root node -->
            <feature>
              <rects>
                <_>
                  0 9 18 6 -1.</_>
                <_>
                  0 11 18 2 3.</_></rects>
              <tilted>0</tilted></feature>
            <threshold>5.7155801914632320e-04</threshold>
            <left_val>-9.5946121215820312e-01</left_val>
            <right_val>3.4772628545761108e-01</right_val></_></_>
        <_>
          <!-- tree 5 -->
          <_>
            <!-- root node -->
            <feature>
              <rects>
                <_>
                  16 6 6 10 -1.</_>
                <_>
                  18 6 2 10 3.</_></rects>
              <tilted>0</tilted></feature>
            <threshold>3.6267571151256561e-02</threshold>
            <left_val>-4.3579009175300598e-01</left_val>
            <right_val>8.5131877660751343e-01</right_val></_></_>
        <_>
          <!-- tree 6 -->
          <_>
            <!-- root node -->
            <feature>
              <rects>
                <_>
                  1 7 21 6 -1.</_>
                <_>
                  1 9 21 2 3.</_></rects>
              <tilted>0</tilted></feature>
            <threshold>9.7614142578095198e-04</threshold>
            <left_val>-9.7686582803726196e-01</left_val>
            <right_val>4.1572409868240356e-01</right_val></_></_></trees>
      <stage_threshold>-5.0951832532882690e-01</stage_threshold>
      <parent>2</parent>
      <next>-1</next></_>
    <_>
      <!-- stage 4 -->
      <trees>
        <_>
          <!-- tree 0 -->
          <_>
            <!-- root node -->
            <feature>
              <rects>
                <_>
                  11 4 2 8 -1.</_>
                <_>
                  11 8 2 4 2.</_></rects>
              <tilted>0</tilted></feature>
            <threshold>-1.6147849237313494e-05</threshold>
            <left_val>7.7618557214736938e-01</left_val>
            <right_val>-6.2698048353195190e-01</right_val></_></_>
        <_>
          <!-- tree 1 -->
          <_>
            <!-- root node -->
            <feature>
              <rects>
                <_>
                  1 0 22 20 -1.</_>
                <_>
                  1 10 22 10 2.</_></rects>
              <tilted>0</tilted></feature>
            <threshold>8.4469085559248924e-03</threshold>
            <left_val>-9.3934381008148193e-01</left_val>
            <right_val>4.2065331339836121e-01</right_val></_></_>
        <_>
          <!-- tree 2 -->
          <_>
            <!-- root node -->
            <feature>
              <rects>
                <_>
                  1 5 9 6 -1.</_>
                <_>
                  4 5 3 6 3.</_></rects>
              <tilted>0</tilted></feature>
            <threshold>-2.1367900073528290e-02</threshold>
            <left_val>7.0949232578277588e-01</left_val>
            <right_val>-6.0069507360458374e-01</right_val></_></_>
        <_>
          <!-- tree 3 -->
          <_>
            <!-- root node -->
            <feature>
              <rects>
                <_>
                  14 5 10 16 -1.</_>
                <_>
                  14 5 5 16 2.</_></rects>
              <tilted>0</tilted></feature>
            <threshold>7.9586178064346313e-02</threshold>
            <left_val>-3.2615289092063904e-01</left_val>
            <right_val>6.4884269237518311e-01</right_val></_></_>
        <_>
          <!-- tree 4 -->
          <_>
            <!-- root node -->
            <feature>
              <rects>
                <_>
                  1 10 22 6 -1.</_>
                <_>
                  1 12 22 2 3.</_></rects>
              <tilted>0</tilted></feature>
            <threshold>5.2010657964274287e-04</threshold>
            <left_val>-9.8406291007995605e-01</left_val>
            <right_val>3.0589720606803894e-01</right_val></_></_>
        <_>
          <!-- tree 5 -->
          <_>
            <!-- root node -->
            <feature>
              <rects>
                <_>
                  14 18 10 1 -1.</_>
                <_>
                  14 18 5 1 2.</_></rects>
              <tilted>0</tilted></feature>
            <threshold>4.5017739466857165e-05</threshold>
            <left_val>-7.8946739435195923e-01</left_val>
            <right_val>1.4450860023498535e-01</right_val></_></_>
        <_>
          <!-- tree 6 -->
          <_>
            <!-- root node -->
            <feature>
              <rects>
                <_>
                  0 18 10 1 -1.</_>
                <_>
                  5 18 5 1 2.</_></rects>
              <tilted>0</tilted></feature>
            <threshold>1.6439169485238381e-05</threshold>
            <left_val>-9.2333698272705078e-01</left_val>
            <right_val>3.2859811186790466e-01</right_val></_></_>
        <_>
          <!-- tree 7 -->
          <_>
            <!-- root node -->
            <feature>
              <rects>
                <_>
                  7 6 16 6 -1.</_>
                <_>
                  15 6 8 3 2.</_>
                <_>
                  7 9 8 3 2.</_></rects>
              <tilted>0</tilted></feature>
            <threshold>-7.8377306635957211e-05</threshold>
            <left_val>3.6959311366081238e-01</left_val>
            <right_val>-9.3753218650817871e-01</right_val></_></_>
        <_>
          <!-- tree 8 -->
          <_>
            <!-- root node -->
            <feature>
              <rects>
                <_>
                  0 12 16 6 -1.</_>
                <_>
                  0 14 16 2 3.</_></rects>
              <tilted>0</tilted></feature>
            <threshold>1.4379059430211782e-03</threshold>
            <left_val>-9.2503249645233154e-01</left_val>
            <right_val>2.8771799802780151e-01</right_val></_></_>
        <_>
          <!-- tree 9 -->
          <_>
            <!-- root node -->
            <feature>
              <rects>
                <_>
                  3 2 20 22 -1.</_>
                <_>
                  3 13 20 11 2.</_></rects>
              <tilted>0</tilted></feature>
            <threshold>-1.4052880578674376e-04</threshold>
            <left_val>2.1866859495639801e-01</left_val>
            <right_val>-9.4653612375259399e-01</right_val></_></_></trees>
      <stage_threshold>-1.0230720043182373e+00</stage_threshold>
      <parent>3</parent>
      <next>-1</next></_>
    <_>
      <!-- stage 5 -->
      <trees>
        <_>
          <!-- tree 0 -->
          <_>
            <!-- root node -->
            <feature>
              <rects>
                <_>
                  1 5 16 8 -1.</_>
                <_>
                  1 5 8 4 2.</_>
                <_>
                  9 9 8 4 2.</_></rects>
              <tilted>0</tilted></feature>
            <threshold>-1.9952629227191210e-03</threshold>
            <left_val>7.2291702032089233e-01</left_val>
            <right_val>-9.5919102430343628e-01</right_val></_></_>
        <_>
          <!-- tree 1 -->
          <_>
            <!-- root node -->
            <feature>
              <rects>
                <_>
                  1 10 22 9 -1.</_>
                <_>
                  1 13 22 3 3.</_></rects>
              <tilted>0</tilted></feature>
            <threshold>2.8596170246601105e-02</threshold>
            <left_val>-9.3881517648696899e-01</left_val>
            <right_val>3.7120169401168823e-01</right_val></_></_>
        <_>
          <!-- tree 2 -->
          <_>
            <!-- root node -->
            <feature>
              <rects>
                <_>
                  1 6 6 9 -1.</_>
                <_>
                  3 6 2 9 3.</_></rects>
              <tilted>0</tilted></feature>
            <threshold>-2.6231469586491585e-02</threshold>
            <left_val>8.1394231319427490e-01</left_val>
            <right_val>-6.6220307350158691e-01</right_val></_></_>
        <_>
          <!-- tree 3 -->
          <_>
            <!-- root node -->
            <feature>
              <rects>
                <_>
                  1 2 23 10 -1.</_>
                <_>
                  1 7 23 5 2.</_></rects>
              <tilted>0</tilted></feature>
            <threshold>9.5733970403671265e-02</threshold>
            <left_val>-9.6491318941116333e-01</left_val>
            <right_val>4.1699430346488953e-01</right_val></_></_>
        <_>
          <!-- tree 4 -->
          <_>
            <!-- root node -->
            <feature>
              <rects>
                <_>
                  0 5 6 10 -1.</_>
                <_>
                  2 5 2 10 3.</_></rects>
              <tilted>0</tilted></feature>
            <threshold>2.8941469267010689e-02</threshold>
            <left_val>-6.7382091283798218e-01</left_val>
            <right_val>8.1424361467361450e-01</right_val></_></_>
        <_>
          <!-- tree 5 -->
          <_>
            <!-- root node -->
            <feature>
              <rects>
                <_>
                  1 8 22 6 -1.</_>
                <_>
                  1 10 22 2 3.</_></rects>
              <tilted>0</tilted></feature>
            <threshold>1.4522329729516059e-04</threshold>
            <left_val>-9.9912321567535400e-01</left_val>
            <right_val>2.8711411356925964e-01</right_val></_></_>
        <_>
          <!-- tree 6 -->
          <_>
            <!-- root node -->
            <feature>
              <rects>
                <_>
                  0 11 6 5 -1.</_>
                <_>
                  2 11 2 5 3.</_></rects>
              <tilted>0</tilted></feature>
            <threshold>-8.4756035357713699e-03</threshold>
            <left_val>6.0968828201293945e-01</left_val>
            <right_val>-9.0326189994812012e-01</right_val></_></_>
        <_>
          <!-- tree 7 -->
          <_>
            <!-- root node -->
            <feature>
              <rects>
                <_>
                  9 13 14 4 -1.</_>
                <_>
                  16 13 7 2 2.</_>
                <_>
                  9 15 7 2 2.</_></rects>
              <tilted>0</tilted></feature>
            <threshold>1.0364620247855783e-03</threshold>
            <left_val>-9.1625750064849854e-01</left_val>
            <right_val>6.8442839384078979e-01</right_val></_></_>
        <_>
          <!-- tree 8 -->
          <_>
            <!-- root node -->
            <feature>
              <rects>
                <_>
                  2 10 13 6 -1.</_>
                <_>
                  2 12 13 2 3.</_></rects>
              <tilted>0</tilted></feature>
            <threshold>7.7655550558120012e-04</threshold>
            <left_val>-9.8586928844451904e-01</left_val>
            <right_val>3.8933399319648743e-01</right_val></_></_>
        <_>
          <!-- tree 9 -->
          <_>
            <!-- root node -->
            <feature>
              <rects>
                <_>
                  7 4 17 9 -1.</_>
                <_>
                  7 7 17 3 3.</_></rects>
              <tilted>0</tilted></feature>
            <threshold>2.5353119708597660e-03</threshold>
            <left_val>-9.8396217823028564e-01</left_val>
            <right_val>8.8092260062694550e-02</right_val></_></_>
        <_>
          <!-- tree 10 -->
          <_>
            <!-- root node -->
            <feature>
              <rects>
                <_>
                  0 0 5 9 -1.</_>
                <_>
                  0 3 5 3 3.</_></rects>
              <tilted>0</tilted></feature>
            <threshold>-2.1075509721413255e-04</threshold>
            <left_val>2.7053761482238770e-01</left_val>
            <right_val>-9.8922210931777954e-01</right_val></_></_>
        <_>
          <!-- tree 11 -->
          <_>
            <!-- root node -->
            <feature>
              <rects>
                <_>
                  11 7 10 12 -1.</_>
                <_>
                  16 7 5 6 2.</_>
                <_>
                  11 13 5 6 2.</_></rects>
              <tilted>0</tilted></feature>
            <threshold>1.1746549716917798e-04</threshold>
            <left_val>-8.4734618663787842e-01</left_val>
            <right_val>1.5536689758300781e-01</right_val></_></_>
        <_>
          <!-- tree 12 -->
          <_>
            <!-- root node -->
            <feature>
              <rects>
                <_>
                  0 6 12 18 -1.</_>
                <_>
                  0 15 12 9 2.</_></rects>
              <tilted>0</tilted></feature>
            <threshold>-2.1416930481791496e-02</threshold>
            <left_val>4.1322320699691772e-01</left_val>
            <right_val>-9.9949562549591064e-01</right_val></_></_></trees>
      <stage_threshold>-9.4253331422805786e-01</stage_threshold>
      <parent>4</parent>
      <next>-1</next></_>
    <_>
      <!-- stage 6 -->
      <trees>
        <_>
          <!-- tree 0 -->
          <_>
            <!-- root node -->
            <feature>
              <rects>
                <_>
                  10 4 3 6 -1.</_>
                <_>
                  10 7 3 3 2.</_></rects>
              <tilted>0</tilted></feature>
            <threshold>-2.1847719835932367e-05</threshold>
            <left_val>5.7823640108108521e-01</left_val>
            <right_val>-5.8670878410339355e-01</right_val></_></_>
        <_>
          <!-- tree 1 -->
          <_>
            <!-- root node -->
            <feature>
              <rects>
                <_>
                  0 4 24 16 -1.</_>
                <_>
                  8 4 8 16 3.</_></rects>
              <tilted>0</tilted></feature>
            <threshold>2.6289370656013489e-01</threshold>
            <left_val>-4.2470329999923706e-01</left_val>
            <right_val>6.0960978269577026e-01</right_val></_></_>
        <_>
          <!-- tree 2 -->
          <_>
            <!-- root node -->
            <feature>
              <rects>
                <_>
                  1 5 9 11 -1.</_>
                <_>
                  4 5 3 11 3.</_></rects>
              <tilted>0</tilted></feature>
            <threshold>-5.8501821011304855e-02</threshold>
            <left_val>6.9481259584426880e-01</left_val>
            <right_val>-4.2424601316452026e-01</right_val></_></_>
        <_>
          <!-- tree 3 -->
          <_>
            <!-- root node -->
            <feature>
              <rects>
                <_>
                  0 8 24 12 -1.</_>
                <_>
                  0 12 24 4 3.</_></rects>
              <tilted>0</tilted></feature>
            <threshold>8.0009251832962036e-02</threshold>
            <left_val>-8.5684478282928467e-01</left_val>
            <right_val>2.8997948765754700e-01</right_val></_></_>
        <_>
          <!-- tree 4 -->
          <_>
            <!-- root node -->
            <feature>
              <rects>
                <_>
                  0 4 17 9 -1.</_>
                <_>
                  0 7 17 3 3.</_></rects>
              <tilted>0</tilted></feature>
            <threshold>4.5358028728514910e-05</threshold>
            <left_val>-8.4144318103790283e-01</left_val>
            <right_val>2.0740990340709686e-01</right_val></_></_>
        <_>
          <!-- tree 5 -->
          <_>
            <!-- root node -->
            <feature>
              <rects>
                <_>
                  10 9 12 10 -1.</_>
                <_>
                  16 9 6 5 2.</_>
                <_>
                  10 14 6 5 2.</_></rects>
              <tilted>0</tilted></feature>
            <threshold>6.2613501213490963e-03</threshold>
            <left_val>-8.2203590869903564e-01</left_val>
            <right_val>2.0811019837856293e-01</right_val></_></_>
        <_>
          <!-- tree 6 -->
          <_>
            <!-- root node -->
            <feature>
              <rects>
                <_>
                  1 8 14 6 -1.</_>
                <_>
                  1 10 14 2 3.</_></rects>
              <tilted>0</tilted></feature>
            <threshold>6.6383407101966441e-05</threshold>
            <left_val>-9.4217491149902344e-01</left_val>
            <right_val>1.5769560635089874e-01</right_val></_></_>
        <_>
          <!-- tree 7 -->
          <_>
            <!-- root node -->
            <feature>
              <rects>
                <_>
                  10 9 12 10 -1.</_>
                <_>
                  16 9 6 5 2.</_>
                <_>
                  10 14 6 5 2.</_></rects>
              <tilted>0</tilted></feature>
            <threshold>2.6528350645094179e-05</threshold>
            <left_val>-8.4951251745223999e-01</left_val>
            <right_val>-2.7329800650477409e-02</right_val></_></_>
        <_>
          <!-- tree 8 -->
          <_>
            <!-- root node -->
            <feature>
              <rects>
                <_>
                  0 9 12 9 -1.</_>
                <_>
                  0 12 12 3 3.</_></rects>
              <tilted>0</tilted></feature>
            <threshold>9.3485042452812195e-03</threshold>
            <left_val>-9.6117347478866577e-01</left_val>
            <right_val>2.0215609669685364e-01</right_val></_></_>
        <_>
          <!-- tree 9 -->
          <_>
            <!-- root node -->
            <feature>
              <rects>
                <_>
                  18 9 6 6 -1.</_>
                <_>
                  20 9 2 6 3.</_></rects>
              <tilted>0</tilted></feature>
            <threshold>4.3266151100397110e-02</threshold>
            <left_val>-5.5418908596038818e-01</left_val>
            <right_val>8.9040857553482056e-01</right_val></_></_>
        <_>
          <!-- tree 10 -->
          <_>
            <!-- root node -->
            <feature>
              <rects>
                <_>
                  0 0 23 18 -1.</_>
                <_>
                  0 9 23 9 2.</_></rects>
              <tilted>0</tilted></feature>
            <threshold>4.3833989650011063e-02</threshold>
            <left_val>-9.9623471498489380e-01</left_val>
            <right_val>4.2501720786094666e-01</right_val></_></_>
        <_>
          <!-- tree 11 -->
          <_>
            <!-- root node -->
            <feature>
              <rects>
                <_>
                  10 4 13 20 -1.</_>
                <_>
                  10 14 13 10 2.</_></rects>
              <tilted>0</tilted></feature>
            <threshold>-2.0280519966036081e-03</threshold>
            <left_val>-8.7278783321380615e-02</left_val>
            <right_val>-9.8171240091323853e-01</right_val></_></_>
        <_>
          <!-- tree 12 -->
          <_>
            <!-- root node -->
            <feature>
              <rects>
                <_>
                  3 7 5 6 -1.</_>
                <_>
                  3 9 5 2 3.</_></rects>
              <tilted>0</tilted></feature>
            <threshold>2.1231149730738252e-05</threshold>
            <left_val>-9.6896487474441528e-01</left_val>
            <right_val>2.3943710327148438e-01</right_val></_></_>
        <_>
          <!-- tree 13 -->
          <_>
            <!-- root node -->
            <feature>
              <rects>
                <_>
                  1 0 22 9 -1.</_>
                <_>
                  1 3 22 3 3.</_></rects>
              <tilted>0</tilted></feature>
            <threshold>-2.0082460716366768e-02</threshold>
            <left_val>1.6250440478324890e-01</left_val>
            <right_val>-9.5493918657302856e-01</right_val></_></_>
        <_>
          <!-- tree 14 -->
          <_>
            <!-- root node -->
            <feature>
              <rects>
                <_>
                  0 12 14 4 -1.</_>
                <_>
                  0 12 7 2 2.</_>
                <_>
                  7 14 7 2 2.</_></rects>
              <tilted>0</tilted></feature>
            <threshold>1.6437799786217511e-04</threshold>
            <left_val>-8.8861137628555298e-01</left_val>
            <right_val>3.3951950073242188e-01</right_val></_></_>
        <_>
          <!-- tree 15 -->
          <_>
            <!-- root node -->
            <feature>
              <rects>
                <_>
                  6 12 18 6 -1.</_>
                <_>
                  6 14 18 2 3.</_></rects>
              <tilted>0</tilted></feature>
            <threshold>2.4638298782519996e-04</threshold>
            <left_val>-9.0990537405014038e-01</left_val>
            <right_val>1.2888430058956146e-01</right_val></_></_>
        <_>
          <!-- tree 16 -->
          <_>
            <!-- root node -->
            <feature>
              <rects>
                <_>
                  1 9 22 6 -1.</_>
                <_>
                  1 11 22 2 3.</_></rects>
              <tilted>0</tilted></feature>
            <threshold>9.7728079708758742e-05</threshold>
            <left_val>-9.9019777774810791e-01</left_val>
            <right_val>1.9609110057353973e-01</right_val></_></_>
        <_>
          <!-- tree 17 -->
          <_>
            <!-- root node -->
            <feature>
              <rects>
                <_>
                  7 4 14 10 -1.</_>
                <_>
                  14 4 7 5 2.</_>
                <_>
                  7 9 7 5 2.</_></rects>
              <tilted>0</tilted></feature>
            <threshold>-2.8402109819580801e-05</threshold>
            <left_val>1.3846939802169800e-01</left_val>
            <right_val>-8.8010150194168091e-01</right_val></_></_>
        <_>
          <!-- tree 18 -->
          <_>
            <!-- root node -->
            <feature>
              <rects>
                <_>
                  5 5 12 10 -1.</_>
                <_>
                  5 5 6 5 2.</_>
                <_>
                  11 10 6 5 2.</_></rects>
              <tilted>0</tilted></feature>
            <threshold>-1.6955329556367360e-05</threshold>
            <left_val>3.9746868610382080e-01</left_val>
            <right_val>-8.5559618473052979e-01</right_val></_></_>
        <_>
          <!-- tree 19 -->
          <_>
            <!-- root node -->
            <feature>
              <rects>
                <_>
                  16 6 1 10 -1.</_>
                <_>
                  16 11 1 5 2.</_></rects>
              <tilted>0</tilted></feature>
            <threshold>-1.3834939636581112e-05</threshold>
            <left_val>2.9807710647583008e-01</left_val>
            <right_val>-4.6162679791450500e-01</right_val></_></_>
        <_>
          <!-- tree 20 -->
          <_>
            <!-- root node -->
            <feature>
              <rects>
                <_>
                  0 8 6 10 -1.</_>
                <_>
                  2 8 2 10 3.</_></rects>
              <tilted>0</tilted></feature>
            <threshold>-2.9595689848065376e-02</threshold>
            <left_val>7.8441607952117920e-01</left_val>
            <right_val>-3.3673489093780518e-01</right_val></_></_></trees>
      <stage_threshold>-2.1557118892669678e+00</stage_threshold>
      <parent>5</parent>
      <next>-1</next></_>
    <_>
      <!-- stage 7 -->
      <trees>
        <_>
          <!-- tree 0 -->
          <_>
            <!-- root node -->
            <feature>
              <rects>
                <_>
                  9 10 5 9 -1.</_>
                <_>
                  9 13 5 3 3.</_></rects>
              <tilted>0</tilted></feature>
            <threshold>-1.3692970242118463e-05</threshold>
            <left_val>7.3339498043060303e-01</left_val>
            <right_val>-5.4793798923492432e-01</right_val></_></_>
        <_>
          <!-- tree 1 -->
          <_>
            <!-- root node -->
            <feature>
              <rects>
                <_>
                  15 6 8 6 -1.</_>
                <_>
                  15 8 8 2 3.</_></rects>
              <tilted>0</tilted></feature>
            <threshold>1.5775070060044527e-03</threshold>
            <left_val>-7.6156127452850342e-01</left_val>
            <right_val>4.3784749507904053e-01</right_val></_></_>
        <_>
          <!-- tree 2 -->
          <_>
            <!-- root node -->
            <feature>
              <rects>
                <_>
                  1 9 22 2 -1.</_>
                <_>
                  1 10 22 1 2.</_></rects>
              <tilted>0</tilted></feature>
            <threshold>8.3065802755299956e-05</threshold>
            <left_val>-9.2285847663879395e-01</left_val>
            <right_val>2.5480049848556519e-01</right_val></_></_>
        <_>
          <!-- tree 3 -->
          <_>
            <!-- root node -->
            <feature>
              <rects>
                <_>
                  9 2 15 12 -1.</_>
                <_>
                  9 6 15 4 3.</_></rects>
              <tilted>0</tilted></feature>
            <threshold>1.6349320067092776e-03</threshold>
            <left_val>-7.9187822341918945e-01</left_val>
            <right_val>2.4881320074200630e-02</right_val></_></_>
        <_>
          <!-- tree 4 -->
          <_>
            <!-- root node -->
            <feature>
              <rects>
                <_>
                  2 9 12 10 -1.</_>
                <_>
                  2 9 6 5 2.</_>
                <_>
                  8 14 6 5 2.</_></rects>
              <tilted>0</tilted></feature>
            <threshold>1.7469709564466029e-04</threshold>
            <left_val>-9.2262721061706543e-01</left_val>
            <right_val>2.5261670351028442e-01</right_val></_></_>
        <_>
          <!-- tree 5 -->
          <_>
            <!-- root node -->
            <feature>
              <rects>
                <_>
                  5 11 19 6 -1.</_>
                <_>
                  5 13 19 2 3.</_></rects>
              <tilted>0</tilted></feature>
            <threshold>2.1969279623590410e-04</threshold>
            <left_val>-9.5346081256866455e-01</left_val>
            <right_val>9.1196358203887939e-02</right_val></_></_>
        <_>
          <!-- tree 6 -->
          <_>
            <!-- root node -->
            <feature>
              <rects>
                <_>
                  1 10 22 3 -1.</_>
                <_>
                  1 11 22 1 3.</_></rects>
              <tilted>0</tilted></feature>
            <threshold>1.3694459994439967e-05</threshold>
            <left_val>-9.0659862756729126e-01</left_val>
            <right_val>1.8470869958400726e-01</right_val></_></_>
        <_>
          <!-- tree 7 -->
          <_>
            <!-- root node -->
            <feature>
              <rects>
                <_>
                  10 4 13 20 -1.</_>
                <_>
                  10 14 13 10 2.</_></rects>
              <tilted>0</tilted></feature>
            <threshold>-2.1131779067218304e-03</threshold>
            <left_val>-2.4275060743093491e-02</left_val>
            <right_val>-9.7664642333984375e-01</right_val></_></_>
        <_>
          <!-- tree 8 -->
          <_>
            <!-- root node -->
            <feature>
              <rects>
                <_>
                  1 6 8 6 -1.</_>
                <_>
                  1 8 8 2 3.</_></rects>
              <tilted>0</tilted></feature>
            <threshold>1.4198489952832460e-03</threshold>
            <left_val>-8.5705161094665527e-01</left_val>
            <right_val>3.0597558617591858e-01</right_val></_></_>
        <_>
          <!-- tree 9 -->
          <_>
            <!-- root node -->
            <feature>
              <rects>
                <_>
                  7 11 17 6 -1.</_>
                <_>
                  7 13 17 2 3.</_></rects>
              <tilted>0</tilted></feature>
            <threshold>1.9445779616944492e-04</threshold>
            <left_val>-9.1783601045608521e-01</left_val>
            <right_val>4.3056640774011612e-02</right_val></_></_>
        <_>
          <!-- tree 10 -->
          <_>
            <!-- root node -->
            <feature>
              <rects>
                <_>
                  1 11 8 6 -1.</_>
                <_>
                  1 13 8 2 3.</_></rects>
              <tilted>0</tilted></feature>
            <threshold>1.5200629422906786e-04</threshold>
            <left_val>-9.7476577758789062e-01</left_val>
            <right_val>1.7913320660591125e-01</right_val></_></_>
        <_>
          <!-- tree 11 -->
          <_>
            <!-- root node -->
            <feature>
              <rects>
                <_>
                  14 8 10 6 -1.</_>
                <_>
                  14 10 10 2 3.</_></rects>
              <tilted>0</tilted></feature>
            <threshold>3.2084019039757550e-04</threshold>
            <left_val>-9.6353071928024292e-01</left_val>
            <right_val>9.2802062630653381e-02</right_val></_></_>
        <_>
          <!-- tree 12 -->
          <_>
            <!-- root node -->
            <feature>
              <rects>
                <_>
                  0 8 10 6 -1.</_>
                <_>
                  0 10 10 2 3.</_></rects>
              <tilted>0</tilted></feature>
            <threshold>8.0465618520975113e-04</threshold>
            <left_val>-9.8955112695693970e-01</left_val>
            <right_val>1.1357329785823822e-01</right_val></_></_>
        <_>
          <!-- tree 13 -->
          <_>
            <!-- root node -->
            <feature>
              <rects>
                <_>
                  9 6 15 18 -1.</_>
                <_>
                  9 15 15 9 2.</_></rects>
              <tilted>0</tilted></feature>
            <threshold>-7.8962382394820452e-04</threshold>
            <left_val>-2.0689919590950012e-02</left_val>
            <right_val>-9.7291642427444458e-01</right_val></_></_>
        <_>
          <!-- tree 14 -->
          <_>
            <!-- root node -->
            <feature>
              <rects>
                <_>
                  0 6 15 18 -1.</_>
                <_>
                  0 15 15 9 2.</_></rects>
              <tilted>0</tilted></feature>
            <threshold>-5.0807099789381027e-02</threshold>
            <left_val>1.0119950026273727e-01</left_val>
            <right_val>-9.9485921859741211e-01</right_val></_></_>
        <_>
          <!-- tree 15 -->
          <_>
            <!-- root node -->
            <feature>
              <rects>
                <_>
                  5 4 19 12 -1.</_>
                <_>
                  5 10 19 6 2.</_></rects>
              <tilted>0</tilted></feature>
            <threshold>8.0012760008685291e-05</threshold>
            <left_val>-9.8179870843887329e-01</left_val>
            <right_val>5.7898290455341339e-02</right_val></_></_>
        <_>
          <!-- tree 16 -->
          <_>
            <!-- root node -->
            <feature>
              <rects>
                <_>
                  11 3 2 8 -1.</_>
                <_>
                  11 7 2 4 2.</_></rects>
              <tilted>0</tilted></feature>
            <threshold>-1.6163899999810383e-05</threshold>
            <left_val>5.7972162961959839e-01</left_val>
            <right_val>-8.4326940774917603e-01</right_val></_></_>
        <_>
          <!-- tree 17 -->
          <_>
            <!-- root node -->
            <feature>
              <rects>
                <_>
                  1 10 23 6 -1.</_>
                <_>
                  1 12 23 2 3.</_></rects>
              <tilted>0</tilted></feature>
            <threshold>9.5177092589437962e-05</threshold>
            <left_val>-9.8048502206802368e-01</left_val>
            <right_val>3.0244079232215881e-01</right_val></_></_>
        <_>
          <!-- tree 18 -->
          <_>
            <!-- root node -->
            <feature>
              <rects>
                <_>
                  2 11 20 3 -1.</_>
                <_>
                  2 12 20 1 3.</_></rects>
              <tilted>0</tilted></feature>
            <threshold>1.4741909581061918e-05</threshold>
            <left_val>-9.2353338003158569e-01</left_val>
            <right_val>1.8177700042724609e-01</right_val></_></_>
        <_>
          <!-- tree 19 -->
          <_>
            <!-- root node -->
            <feature>
              <rects>
                <_>
                  11 4 12 6 -1.</_>
                <_>
                  15 4 4 6 3.</_></rects>
              <tilted>0</tilted></feature>
            <threshold>-4.7663579607615247e-05</threshold>
            <left_val>4.4126620888710022e-01</left_val>
            <right_val>-9.2453259229660034e-01</right_val></_></_>
        <_>
          <!-- tree 20 -->
          <_>
            <!-- root node -->
            <feature>
              <rects>
                <_>
                  1 4 12 6 -1.</_>
                <_>
                  5 4 4 6 3.</_></rects>
              <tilted>0</tilted></feature>
            <threshold>-2.7687519323080778e-03</threshold>
            <left_val>3.9131051301956177e-01</left_val>
            <right_val>-7.6631432771682739e-01</right_val></_></_></trees>
      <stage_threshold>-1.9848250150680542e+00</stage_threshold>
      <parent>6</parent>
      <next>-1</next></_>
    <_>
      <!-- stage 8 -->
      <trees>
        <_>
          <!-- tree 0 -->
          <_>
            <!-- root node -->
            <feature>
              <rects>
                <_>
                  7 3 9 11 -1.</_>
                <_>
                  10 3 3 11 3.</_></rects>
              <tilted>0</tilted></feature>
            <threshold>-2.3387119654216804e-05</threshold>
            <left_val>6.0953867435455322e-01</left_val>
            <right_val>-6.8359541893005371e-01</right_val></_></_>
        <_>
          <!-- tree 1 -->
          <_>
            <!-- root node -->
            <feature>
              <rects>
                <_>
                  0 3 24 11 -1.</_>
                <_>
                  8 3 8 11 3.</_></rects>
              <tilted>0</tilted></feature>
            <threshold>1.4824110269546509e-01</threshold>
            <left_val>-4.6796768903732300e-01</left_val>
            <right_val>6.9160038232803345e-01</right_val></_></_>
        <_>
          <!-- tree 2 -->
          <_>
            <!-- root node -->
            <feature>
              <rects>
                <_>
                  8 5 8 4 -1.</_>
                <_>
                  8 7 8 2 2.</_></rects>
              <tilted>0</tilted></feature>
            <threshold>-1.3599709745903965e-05</threshold>
            <left_val>6.6749000549316406e-01</left_val>
            <right_val>-6.5811169147491455e-01</right_val></_></_>
        <_>
          <!-- tree 3 -->
          <_>
            <!-- root node -->
            <feature>
              <rects>
                <_>
                  6 12 18 6 -1.</_>
                <_>
                  6 14 18 2 3.</_></rects>
              <tilted>0</tilted></feature>
            <threshold>3.9052451029419899e-05</threshold>
            <left_val>-7.6230710744857788e-01</left_val>
            <right_val>2.4433809518814087e-01</right_val></_></_>
        <_>
          <!-- tree 4 -->
          <_>
            <!-- root node -->
            <feature>
              <rects>
                <_>
                  0 14 5 9 -1.</_>
                <_>
                  0 17 5 3 3.</_></rects>
              <tilted>0</tilted></feature>
            <threshold>-1.0976769961416721e-02</threshold>
            <left_val>2.5075531005859375e-01</left_val>
            <right_val>-7.7600157260894775e-01</right_val></_></_>
        <_>
          <!-- tree 5 -->
          <_>
            <!-- root node -->
            <feature>
              <rects>
                <_>
                  17 9 6 7 -1.</_>
                <_>
                  19 9 2 7 3.</_></rects>
              <tilted>0</tilted></feature>
            <threshold>-2.8279570862650871e-02</threshold>
            <left_val>8.9222180843353271e-01</left_val>
            <right_val>-3.4910219907760620e-01</right_val></_></_>
        <_>
          <!-- tree 6 -->
          <_>
            <!-- root node -->
            <feature>
              <rects>
                <_>
                  2 3 15 12 -1.</_>
                <_>
                  2 7 15 4 3.</_></rects>
              <tilted>0</tilted></feature>
            <threshold>5.4753542644903064e-04</threshold>
            <left_val>-8.0527961254119873e-01</left_val>
            <right_val>3.1405508518218994e-01</right_val></_></_>
        <_>
          <!-- tree 7 -->
          <_>
            <!-- root node -->
            <feature>
              <rects>
                <_>
                  17 9 6 6 -1.</_>
                <_>
                  19 9 2 6 3.</_></rects>
              <tilted>0</tilted></feature>
            <threshold>2.6783600449562073e-02</threshold>
            <left_val>-4.4718039035797119e-01</left_val>
            <right_val>7.1298712491989136e-01</right_val></_></_>
        <_>
          <!-- tree 8 -->
          <_>
            <!-- root node -->
            <feature>
              <rects>
                <_>
                  1 1 21 18 -1.</_>
                <_>
                  1 10 21 9 2.</_></rects>
              <tilted>0</tilted></feature>
            <threshold>2.7170130051672459e-03</threshold>
            <left_val>-9.7820472717285156e-01</left_val>
            <right_val>2.4848279356956482e-01</right_val></_></_>
        <_>
          <!-- tree 9 -->
          <_>
            <!-- root node -->
            <feature>
              <rects>
                <_>
                  17 9 6 6 -1.</_>
                <_>
                  19 9 2 6 3.</_></rects>
              <tilted>0</tilted></feature>
            <threshold>-4.6627810224890709e-03</threshold>
            <left_val>3.5187870264053345e-01</left_val>
            <right_val>-5.9128862619400024e-01</right_val></_></_>
        <_>
          <!-- tree 10 -->
          <_>
            <!-- root node -->
            <feature>
              <rects>
                <_>
                  1 7 22 2 -1.</_>
                <_>
                  1 8 22 1 2.</_></rects>
              <tilted>0</tilted></feature>
            <threshold>8.2434708019718528e-05</threshold>
            <left_val>-9.7698187828063965e-01</left_val>
            <right_val>3.3343398571014404e-01</right_val></_></_>
        <_>
          <!-- tree 11 -->
          <_>
            <!-- root node -->
            <feature>
              <rects>
                <_>
                  17 9 6 6 -1.</_>
                <_>
                  19 9 2 6 3.</_></rects>
              <tilted>0</tilted></feature>
            <threshold>6.2895310111343861e-03</threshold>
            <left_val>-6.4711207151412964e-01</left_val>
            <right_val>3.5681539773941040e-01</right_val></_></_>
        <_>
          <!-- tree 12 -->
          <_>
            <!-- root node -->
            <feature>
              <rects>
                <_>
                  0 11 17 6 -1.</_>
                <_>
                  0 13 17 2 3.</_></rects>
              <tilted>0</tilted></feature>
            <threshold>7.4032670818269253e-04</threshold>
            <left_val>-9.7115647792816162e-01</left_val>
            <right_val>2.7233389019966125e-01</right_val></_></_>
        <_>
          <!-- tree 13 -->
          <_>
            <!-- root node -->
            <feature>
              <rects>
                <_>
                  1 14 23 8 -1.</_>
                <_>
                  1 18 23 4 2.</_></rects>
              <tilted>0</tilted></feature>
            <threshold>-2.8430830687284470e-02</threshold>
            <left_val>4.0477339178323746e-02</left_val>
            <right_val>-9.8662072420120239e-01</right_val></_></_>
        <_>
          <!-- tree 14 -->
          <_>
            <!-- root node -->
            <feature>
              <rects>
                <_>
                  1 9 6 6 -1.</_>
                <_>
                  3 9 2 6 3.</_></rects>
              <tilted>0</tilted></feature>
            <threshold>-1.4667710289359093e-02</threshold>
            <left_val>7.1259772777557373e-01</left_val>
            <right_val>-5.7143449783325195e-01</right_val></_></_>
        <_>
          <!-- tree 15 -->
          <_>
            <!-- root node -->
            <feature>
              <rects>
                <_>
                  20 12 4 2 -1.</_>
                <_>
                  20 12 2 2 2.</_></rects>
              <tilted>0</tilted></feature>
            <threshold>1.7088820459321141e-03</threshold>
            <left_val>-3.8291940093040466e-01</left_val>
            <right_val>5.2683269977569580e-01</right_val></_></_>
        <_>
          <!-- tree 16 -->
          <_>
            <!-- root node -->
            <feature>
              <rects>
                <_>
                  0 12 4 2 -1.</_>
                <_>
                  2 12 2 2 2.</_></rects>
              <tilted>0</tilted></feature>
            <threshold>2.3552190396003425e-04</threshold>
            <left_val>-6.9574797153472900e-01</left_val>
            <right_val>4.9645110964775085e-01</right_val></_></_>
        <_>
          <!-- tree 17 -->
          <_>
            <!-- root node -->
            <feature>
              <rects>
                <_>
                  18 7 5 6 -1.</_>
                <_>
                  18 9 5 2 3.</_></rects>
              <tilted>0</tilted></feature>
            <threshold>5.0507701234892011e-04</threshold>
            <left_val>-8.2212561368942261e-01</left_val>
            <right_val>2.2330060601234436e-01</right_val></_></_>
        <_>
          <!-- tree 18 -->
          <_>
            <!-- root node -->
            <feature>
              <rects>
                <_>
                  0 7 6 6 -1.</_>
                <_>
                  2 7 2 6 3.</_></rects>
              <tilted>0</tilted></feature>
            <threshold>-2.4624859914183617e-02</threshold>
            <left_val>9.3857562541961670e-01</left_val>
            <right_val>-7.0237231254577637e-01</right_val></_></_>
        <_>
          <!-- tree 19 -->
          <_>
            <!-- root node -->
            <feature>
              <rects>
                <_>
                  7 6 16 6 -1.</_>
                <_>
                  15 6 8 3 2.</_>
                <_>
                  7 9 8 3 2.</_></rects>
              <tilted>0</tilted></feature>
            <threshold>-4.6125180233502761e-05</threshold>
            <left_val>5.6059581041336060e-01</left_val>
            <right_val>-7.9378652572631836e-01</right_val></_></_></trees>
      <stage_threshold>-1.6440429687500000e+00</stage_threshold>
      <parent>7</parent>
      <next>-1</next></_>
    <_>
      <!-- stage 9 -->
      <trees>
        <_>
          <!-- tree 0 -->
          <_>
            <!-- root node -->
            <feature>
              <rects>
                <_>
                  9 14 5 4 -1.</_>
                <_>
                  9 16 5 2 2.</_></rects>
              <tilted>0</tilted></feature>
            <threshold>-9.5919077284634113e-04</threshold>
            <left_val>-7.5786948204040527e-01</left_val>
            <right_val>4.4486349821090698e-01</right_val></_></_>
        <_>
          <!-- tree 1 -->
          <_>
            <!-- root node -->
            <feature>
              <rects>
                <_>
                  9 4 7 3 -1.</_>
                <_>
                  9 5 7 1 3.</_></rects>
              <tilted>0</tilted></feature>
            <threshold>5.1631890237331390e-03</threshold>
            <left_val>-3.6898270249366760e-01</left_val>
            <right_val>8.0567878484725952e-01</right_val></_></_>
        <_>
          <!-- tree 2 -->
          <_>
            <!-- root node -->
            <feature>
              <rects>
                <_>
                  0 4 18 9 -1.</_>
                <_>
                  0 7 18 3 3.</_></rects>
              <tilted>0</tilted></feature>
            <threshold>8.5623149061575532e-04</threshold>
            <left_val>-8.7612497806549072e-01</left_val>
            <right_val>2.9919528961181641e-01</right_val></_></_>
        <_>
          <!-- tree 3 -->
          <_>
            <!-- root node -->
            <feature>
              <rects>
                <_>
                  17 7 6 10 -1.</_>
                <_>
                  19 7 2 10 3.</_></rects>
              <tilted>0</tilted></feature>
            <threshold>-2.9462430626153946e-02</threshold>
            <left_val>7.0544081926345825e-01</left_val>
            <right_val>-4.5838779211044312e-01</right_val></_></_>
        <_>
          <!-- tree 4 -->
          <_>
            <!-- root node -->
            <feature>
              <rects>
                <_>
                  0 14 6 9 -1.</_>
                <_>
                  0 17 6 3 3.</_></rects>
              <tilted>0</tilted></feature>
            <threshold>-1.2467120541259646e-04</threshold>
            <left_val>2.9440769553184509e-01</left_val>
            <right_val>-8.4597831964492798e-01</right_val></_></_>
        <_>
          <!-- tree 5 -->
          <_>
            <!-- root node -->
            <feature>
              <rects>
                <_>
                  20 3 3 11 -1.</_>
                <_>
                  21 3 1 11 3.</_></rects>
              <tilted>0</tilted></feature>
            <threshold>-8.9907720685005188e-03</threshold>
            <left_val>7.6131278276443481e-01</left_val>
            <right_val>-3.0153790116310120e-01</right_val></_></_>
        <_>
          <!-- tree 6 -->
          <_>
            <!-- root node -->
            <feature>
              <rects>
                <_>
                  1 4 3 13 -1.</_>
                <_>
                  2 4 1 13 3.</_></rects>
              <tilted>0</tilted></feature>
            <threshold>1.5897240489721298e-02</threshold>
            <left_val>-2.1908749639987946e-01</left_val>
            <right_val>9.4128382205963135e-01</right_val></_></_>
        <_>
          <!-- tree 7 -->
          <_>
            <!-- root node -->
            <feature>
              <rects>
                <_>
                  7 9 15 6 -1.</_>
                <_>
                  7 11 15 2 3.</_></rects>
              <tilted>0</tilted></feature>
            <threshold>8.0522717325948179e-05</threshold>
            <left_val>-9.2307871580123901e-01</left_val>
            <right_val>2.9892641305923462e-01</right_val></_></_>
        <_>
          <!-- tree 8 -->
          <_>
            <!-- root node -->
            <feature>
              <rects>
                <_>
                  1 8 22 6 -1.</_>
                <_>
                  1 8 11 3 2.</_>
                <_>
                  12 11 11 3 2.</_></rects>
              <tilted>0</tilted></feature>
            <threshold>-5.1891099428758025e-04</threshold>
            <left_val>3.2720199227333069e-01</left_val>
            <right_val>-7.4903571605682373e-01</right_val></_></_>
        <_>
          <!-- tree 9 -->
          <_>
            <!-- root node -->
            <feature>
              <rects>
                <_>
                  18 9 6 7 -1.</_>
                <_>
                  20 9 2 7 3.</_></rects>
              <tilted>0</tilted></feature>
            <threshold>4.0626168251037598e-02</threshold>
            <left_val>-4.2093178629875183e-01</left_val>
            <right_val>7.4327218532562256e-01</right_val></_></_>
        <_>
          <!-- tree 10 -->
          <_>
            <!-- root node -->
            <feature>
              <rects>
                <_>
                  1 13 20 2 -1.</_>
                <_>
                  1 14 20 1 2.</_></rects>
              <tilted>0</tilted></feature>
            <threshold>-5.5806831369409338e-05</threshold>
            <left_val>3.7467360496520996e-01</left_val>
            <right_val>-9.4213038682937622e-01</right_val></_></_></trees>
      <stage_threshold>-1.9812170267105103e+00</stage_threshold>
      <parent>8</parent>
      <next>-1</next></_>
    <_>
      <!-- stage 10 -->
      <trees>
        <_>
          <!-- tree 0 -->
          <_>
            <!-- root node -->
            <feature>
              <rects>
                <_>
                  1 8 6 10 -1.</_>
                <_>
                  3 8 2 10 3.</_></rects>
              <tilted>0</tilted></feature>
            <threshold>-3.8628701120615005e-02</threshold>
            <left_val>8.9181929826736450e-01</left_val>
            <right_val>-3.9952188730239868e-01</right_val></_></_>
        <_>
          <!-- tree 1 -->
          <_>
            <!-- root node -->
            <feature>
              <rects>
                <_>
                  12 4 6 8 -1.</_>
                <_>
                  14 4 2 8 3.</_></rects>
              <tilted>0</tilted></feature>
            <threshold>1.3643769547343254e-02</threshold>
            <left_val>-3.9011800289154053e-01</left_val>
            <right_val>7.6842039823532104e-01</right_val></_></_>
        <_>
          <!-- tree 2 -->
          <_>
            <!-- root node -->
            <feature>
              <rects>
                <_>
                  0 6 6 10 -1.</_>
                <_>
                  2 6 2 10 3.</_></rects>
              <tilted>0</tilted></feature>
            <threshold>4.1830200701951981e-02</threshold>
            <left_val>-4.1277331113815308e-01</left_val>
            <right_val>8.9576190710067749e-01</right_val></_></_>
        <_>
          <!-- tree 3 -->
          <_>
            <!-- root node -->
            <feature>
              <rects>
                <_>
                  12 3 11 12 -1.</_>
                <_>
                  12 7 11 4 3.</_></rects>
              <tilted>0</tilted></feature>
            <threshold>2.7234989101998508e-04</threshold>
            <left_val>-9.7105658054351807e-01</left_val>
            <right_val>2.1972170472145081e-01</right_val></_></_>
        <_>
          <!-- tree 4 -->
          <_>
            <!-- root node -->
            <feature>
              <rects>
                <_>
                  5 2 4 1 -1.</_>
                <_>
                  7 2 2 1 2.</_></rects>
              <tilted>0</tilted></feature>
            <threshold>-2.6076089852722362e-05</threshold>
            <left_val>5.9723162651062012e-01</left_val>
            <right_val>-7.1767199039459229e-01</right_val></_></_>
        <_>
          <!-- tree 5 -->
          <_>
            <!-- root node -->
            <feature>
              <rects>
                <_>
                  12 3 11 12 -1.</_>
                <_>
                  12 7 11 4 3.</_></rects>
              <tilted>0</tilted></feature>
            <threshold>2.7234989101998508e-04</threshold>
            <left_val>-8.1217277050018311e-01</left_val>
            <right_val>2.1788160502910614e-01</right_val></_></_>
        <_>
          <!-- tree 6 -->
          <_>
            <!-- root node -->
            <feature>
              <rects>
                <_>
                  1 7 18 12 -1.</_>
                <_>
                  1 7 9 6 2.</_>
                <_>
                  10 13 9 6 2.</_></rects>
              <tilted>0</tilted></feature>
            <threshold>9.4878931122366339e-05</threshold>
            <left_val>-7.5184142589569092e-01</left_val>
            <right_val>4.0732130408287048e-01</right_val></_></_>
        <_>
          <!-- tree 7 -->
          <_>
            <!-- root node -->
            <feature>
              <rects>
                <_>
                  0 9 24 12 -1.</_>
                <_>
                  0 13 24 4 3.</_></rects>
              <tilted>0</tilted></feature>
            <threshold>6.4188003540039062e-02</threshold>
            <left_val>-8.5929727554321289e-01</left_val>
            <right_val>4.1276979446411133e-01</right_val></_></_>
        <_>
          <!-- tree 8 -->
          <_>
            <!-- root node -->
            <feature>
              <rects>
                <_>
                  0 10 17 6 -1.</_>
                <_>
                  0 12 17 2 3.</_></rects>
              <tilted>0</tilted></feature>
            <threshold>2.0792940631508827e-03</threshold>
            <left_val>-9.6605837345123291e-01</left_val>
            <right_val>1.4853489398956299e-01</right_val></_></_>
        <_>
          <!-- tree 9 -->
          <_>
            <!-- root node -->
            <feature>
              <rects>
                <_>
                  7 6 16 6 -1.</_>
                <_>
                  15 6 8 3 2.</_>
                <_>
                  7 9 8 3 2.</_></rects>
              <tilted>0</tilted></feature>
            <threshold>-5.6662238202989101e-03</threshold>
            <left_val>1.1320050060749054e-01</left_val>
            <right_val>-9.1350418329238892e-01</right_val></_></_>
        <_>
          <!-- tree 10 -->
          <_>
            <!-- root node -->
            <feature>
              <rects>
                <_>
                  2 4 14 20 -1.</_>
                <_>
                  2 14 14 10 2.</_></rects>
              <tilted>0</tilted></feature>
            <threshold>-2.6604169397614896e-04</threshold>
            <left_val>2.4027909338474274e-01</left_val>
            <right_val>-9.9183398485183716e-01</right_val></_></_>
        <_>
          <!-- tree 11 -->
          <_>
            <!-- root node -->
            <feature>
              <rects>
                <_>
                  14 19 10 2 -1.</_>
                <_>
                  14 19 5 2 2.</_></rects>
              <tilted>0</tilted></feature>
            <threshold>1.3903670151194092e-05</threshold>
            <left_val>-7.3573750257492065e-01</left_val>
            <right_val>1.8981400132179260e-01</right_val></_></_>
        <_>
          <!-- tree 12 -->
          <_>
            <!-- root node -->
            <feature>
              <rects>
                <_>
                  4 10 12 1 -1.</_>
                <_>
                  8 10 4 1 3.</_></rects>
              <tilted>0</tilted></feature>
            <threshold>-3.9755799662088975e-05</threshold>
            <left_val>4.6853971481323242e-01</left_val>
            <right_val>-8.1366330385208130e-01</right_val></_></_>
        <_>
          <!-- tree 13 -->
          <_>
            <!-- root node -->
            <feature>
              <rects>
                <_>
                  8 4 10 8 -1.</_>
                <_>
                  13 4 5 4 2.</_>
                <_>
                  8 8 5 4 2.</_></rects>
              <tilted>0</tilted></feature>
            <threshold>2.2220929167815484e-05</threshold>
            <left_val>-3.0873128771781921e-01</left_val>
            <right_val>3.7308341264724731e-01</right_val></_></_>
        <_>
          <!-- tree 14 -->
          <_>
            <!-- root node -->
            <feature>
              <rects>
                <_>
                  0 0 12 12 -1.</_>
                <_>
                  0 6 12 6 2.</_></rects>
              <tilted>0</tilted></feature>
            <threshold>1.3558919541537762e-02</threshold>
            <left_val>-9.6286517381668091e-01</left_val>
            <right_val>3.3158639073371887e-01</right_val></_></_>
        <_>
          <!-- tree 15 -->
          <_>
            <!-- root node -->
            <feature>
              <rects>
                <_>
                  18 9 6 4 -1.</_>
                <_>
                  18 9 3 4 2.</_></rects>
              <tilted>0</tilted></feature>
            <threshold>3.7751119583845139e-02</threshold>
            <left_val>-5.7758039236068726e-01</left_val>
            <right_val>7.6557600498199463e-01</right_val></_></_>
        <_>
          <!-- tree 16 -->
          <_>
            <!-- root node -->
            <feature>
              <rects>
                <_>
                  1 9 22 6 -1.</_>
                <_>
                  1 11 22 2 3.</_></rects>
              <tilted>0</tilted></feature>
            <threshold>9.7728079708758742e-05</threshold>
            <left_val>-9.9916738271713257e-01</left_val>
            <right_val>4.7170341014862061e-01</right_val></_></_>
        <_>
          <!-- tree 17 -->
          <_>
            <!-- root node -->
            <feature>
              <rects>
                <_>
                  16 1 8 5 -1.</_>
                <_>
                  16 1 4 5 2.</_></rects>
              <tilted>0</tilted></feature>
            <threshold>1.3573059732152615e-05</threshold>
            <left_val>-8.9108812808990479e-01</left_val>
            <right_val>-1.9389120861887932e-02</right_val></_></_>
        <_>
          <!-- tree 18 -->
          <_>
            <!-- root node -->
            <feature>
              <rects>
                <_>
                  3 5 14 6 -1.</_>
                <_>
                  3 5 7 3 2.</_>
                <_>
                  10 8 7 3 2.</_></rects>
              <tilted>0</tilted></feature>
            <threshold>-4.6837019908707589e-05</threshold>
            <left_val>4.8430150747299194e-01</left_val>
            <right_val>-9.8077672719955444e-01</right_val></_></_>
        <_>
          <!-- tree 19 -->
          <_>
            <!-- root node -->
            <feature>
              <rects>
                <_>
                  14 0 9 1 -1.</_>
                <_>
                  17 0 3 1 3.</_></rects>
              <tilted>0</tilted></feature>
            <threshold>6.6963883000425994e-05</threshold>
            <left_val>-6.9814908504486084e-01</left_val>
            <right_val>1.3649089634418488e-01</right_val></_></_>
        <_>
          <!-- tree 20 -->
          <_>
            <!-- root node -->
            <feature>
              <rects>
                <_>
                  2 9 7 6 -1.</_>
                <_>
                  2 11 7 2 3.</_></rects>
              <tilted>0</tilted></feature>
            <threshold>1.8863609511754476e-05</threshold>
            <left_val>-9.7813582420349121e-01</left_val>
            <right_val>4.3439540266990662e-01</right_val></_></_>
        <_>
          <!-- tree 21 -->
          <_>
            <!-- root node -->
            <feature>
              <rects>
                <_>
                  14 0 9 1 -1.</_>
                <_>
                  17 0 3 1 3.</_></rects>
              <tilted>0</tilted></feature>
            <threshold>-1.4990509953349829e-05</threshold>
            <left_val>2.4120670557022095e-01</left_val>
            <right_val>-8.5273718833923340e-01</right_val></_></_>
        <_>
          <!-- tree 22 -->
          <_>
            <!-- root node -->
            <feature>
              <rects>
                <_>
                  1 0 22 18 -1.</_>
                <_>
                  1 9 22 9 2.</_></rects>
              <tilted>0</tilted></feature>
            <threshold>6.8090711720287800e-03</threshold>
            <left_val>-9.9854910373687744e-01</left_val>
            <right_val>3.6376219987869263e-01</right_val></_></_>
        <_>
          <!-- tree 23 -->
          <_>
            <!-- root node -->
            <feature>
              <rects>
                <_>
                  14 0 9 1 -1.</_>
                <_>
                  17 0 3 1 3.</_></rects>
              <tilted>0</tilted></feature>
            <threshold>1.3654220310854726e-05</threshold>
            <left_val>-7.7092868089675903e-01</left_val>
            <right_val>2.7493780851364136e-01</right_val></_></_>
        <_>
          <!-- tree 24 -->
          <_>
            <!-- root node -->
            <feature>
              <rects>
                <_>
                  0 0 10 9 -1.</_>
                <_>
                  0 3 10 3 3.</_></rects>
              <tilted>0</tilted></feature>
            <threshold>-5.6448960676789284e-03</threshold>
            <left_val>4.2238810658454895e-01</left_val>
            <right_val>-9.6735662221908569e-01</right_val></_></_>
        <_>
          <!-- tree 25 -->
          <_>
            <!-- root node -->
            <feature>
              <rects>
                <_>
                  12 3 6 9 -1.</_>
                <_>
                  14 3 2 9 3.</_></rects>
              <tilted>0</tilted></feature>
            <threshold>1.7260599881410599e-02</threshold>
            <left_val>-6.3815218210220337e-01</left_val>
            <right_val>7.8925251960754395e-01</right_val></_></_>
        <_>
          <!-- tree 26 -->
          <_>
            <!-- root node -->
            <feature>
              <rects>
                <_>
                  0 11 21 6 -1.</_>
                <_>
                  0 13 21 2 3.</_></rects>
              <tilted>0</tilted></feature>
            <threshold>2.1252459555398673e-04</threshold>
            <left_val>-9.9862051010131836e-01</left_val>
            <right_val>4.3837040662765503e-01</right_val></_></_>
        <_>
          <!-- tree 27 -->
          <_>
            <!-- root node -->
            <feature>
              <rects>
                <_>
                  19 11 4 2 -1.</_>
                <_>
                  19 12 4 1 2.</_></rects>
              <tilted>0</tilted></feature>
            <threshold>6.0317881434457377e-05</threshold>
            <left_val>-8.6237150430679321e-01</left_val>
            <right_val>3.9540579915046692e-01</right_val></_></_>
        <_>
          <!-- tree 28 -->
          <_>
            <!-- root node -->
            <feature>
              <rects>
                <_>
                  0 10 23 12 -1.</_>
                <_>
                  0 16 23 6 2.</_></rects>
              <tilted>0</tilted></feature>
            <threshold>-1.3931499421596527e-01</threshold>
            <left_val>6.3869607448577881e-01</left_val>
            <right_val>-9.9897837638854980e-01</right_val></_></_>
        <_>
          <!-- tree 29 -->
          <_>
            <!-- root node -->
            <feature>
              <rects>
                <_>
                  14 0 9 1 -1.</_>
                <_>
                  17 0 3 1 3.</_></rects>
              <tilted>0</tilted></feature>
            <threshold>-1.4174969692248851e-05</threshold>
            <left_val>-1.8363800644874573e-01</left_val>
            <right_val>-9.3216317892074585e-01</right_val></_></_>
        <_>
          <!-- tree 30 -->
          <_>
            <!-- root node -->
            <feature>
              <rects>
                <_>
                  1 8 22 6 -1.</_>
                <_>
                  1 10 22 2 3.</_></rects>
              <tilted>0</tilted></feature>
            <threshold>1.3519120693672448e-04</threshold>
            <left_val>-1.</left_val>
            <right_val>4.7972729802131653e-01</right_val></_></_>
        <_>
          <!-- tree 31 -->
          <_>
            <!-- root node -->
            <feature>
              <rects>
                <_>
                  14 0 9 1 -1.</_>
                <_>
                  17 0 3 1 3.</_></rects>
              <tilted>0</tilted></feature>
            <threshold>2.2767699192627333e-05</threshold>
            <left_val>-8.9312541484832764e-01</left_val>
            <right_val>4.8094201087951660e-01</right_val></_></_>
        <_>
          <!-- tree 32 -->
          <_>
            <!-- root node -->
            <feature>
              <rects>
                <_>
                  0 8 24 9 -1.</_>
                <_>
                  0 11 24 3 3.</_></rects>
              <tilted>0</tilted></feature>
            <threshold>1.9113250076770782e-02</threshold>
            <left_val>-9.9429118633270264e-01</left_val>
            <right_val>5.2806067466735840e-01</right_val></_></_>
        <_>
          <!-- tree 33 -->
          <_>
            <!-- root node -->
            <feature>
              <rects>
                <_>
                  14 3 2 1 -1.</_>
                <_>
                  14 3 1 1 2.</_></rects>
              <tilted>0</tilted></feature>
            <threshold>4.4291598896961659e-05</threshold>
            <left_val>-9.4234561920166016e-01</left_val>
            <right_val>1.9789379835128784e-01</right_val></_></_>
        <_>
          <!-- tree 34 -->
          <_>
            <!-- root node -->
            <feature>
              <rects>
                <_>
                  2 11 14 8 -1.</_>
                <_>
                  2 15 14 4 2.</_></rects>
              <tilted>0</tilted></feature>
            <threshold>-8.3780160639435053e-04</threshold>
            <left_val>9.1825491189956665e-01</left_val>
            <right_val>-1.0000009536743164e+00</right_val></_></_>
        <_>
          <!-- tree 35 -->
          <_>
            <!-- root node -->
            <feature>
              <rects>
                <_>
                  18 3 6 10 -1.</_>
                <_>
                  20 3 2 10 3.</_></rects>
              <tilted>0</tilted></feature>
            <threshold>3.7373490631580353e-02</threshold>
            <left_val>-9.2108851671218872e-01</left_val>
            <right_val>5.7343751192092896e-01</right_val></_></_>
        <_>
          <!-- tree 36 -->
          <_>
            <!-- root node -->
            <feature>
              <rects>
                <_>
                  4 4 11 20 -1.</_>
                <_>
                  4 14 11 10 2.</_></rects>
              <tilted>0</tilted></feature>
            <threshold>-9.6570601454004645e-04</threshold>
            <left_val>6.3214898109436035e-01</left_val>
            <right_val>-9.9836617708206177e-01</right_val></_></_>
        <_>
          <!-- tree 37 -->
          <_>
            <!-- root node -->
            <feature>
              <rects>
                <_>
                  5 3 15 1 -1.</_>
                <_>
                  10 3 5 1 3.</_></rects>
              <tilted>0</tilted></feature>
            <threshold>-2.6970659746439196e-05</threshold>
            <left_val>1.</left_val>
            <right_val>-9.8777377605438232e-01</right_val></_></_></trees>
      <stage_threshold>-1.7923929691314697e+00</stage_threshold>
      <parent>9</parent>
      <next>-1</next></_>
    <_>
      <!-- stage 11 -->
      <trees>
        <_>
          <!-- tree 0 -->
          <_>
            <!-- root node -->
            <feature>
              <rects>
                <_>
                  1 10 6 5 -1.</_>
                <_>
                  3 10 2 5 3.</_></rects>
              <tilted>0</tilted></feature>
            <threshold>-1.0025089606642723e-02</threshold>
            <left_val>9.4505441188812256e-01</left_val>
            <right_val>-4.7455009818077087e-01</right_val></_></_>
        <_>
          <!-- tree 1 -->
          <_>
            <!-- root node -->
            <feature>
              <rects>
                <_>
                  12 3 6 9 -1.</_>
                <_>
                  14 3 2 9 3.</_></rects>
              <tilted>0</tilted></feature>
            <threshold>1.7208259552717209e-02</threshold>
            <left_val>-3.1335419416427612e-01</left_val>
            <right_val>7.3212051391601562e-01</right_val></_></_>
        <_>
          <!-- tree 2 -->
          <_>
            <!-- root node -->
            <feature>
              <rects>
                <_>
                  0 18 16 1 -1.</_>
                <_>
                  8 18 8 1 2.</_></rects>
              <tilted>0</tilted></feature>
            <threshold>2.5722460122779012e-04</threshold>
            <left_val>-8.1153148412704468e-01</left_val>
            <right_val>4.0972518920898438e-01</right_val></_></_>
        <_>
          <!-- tree 3 -->
          <_>
            <!-- root node -->
            <feature>
              <rects>
                <_>
                  17 2 4 16 -1.</_>
                <_>
                  17 2 2 16 2.</_></rects>
              <tilted>0</tilted></feature>
            <threshold>-3.0738289933651686e-04</threshold>
            <left_val>2.5833618640899658e-01</left_val>
            <right_val>-6.8358242511749268e-01</right_val></_></_>
        <_>
          <!-- tree 4 -->
          <_>
            <!-- root node -->
            <feature>
              <rects>
                <_>
                  1 1 9 8 -1.</_>
                <_>
                  4 1 3 8 3.</_></rects>
              <tilted>0</tilted></feature>
            <threshold>-7.3692831210792065e-04</threshold>
            <left_val>7.1184897422790527e-01</left_val>
            <right_val>-6.4255189895629883e-01</right_val></_></_>
        <_>
          <!-- tree 5 -->
          <_>
            <!-- root node -->
            <feature>
              <rects>
                <_>
                  20 12 2 3 -1.</_>
                <_>
                  20 12 1 3 2.</_></rects>
              <tilted>0</tilted></feature>
            <threshold>-2.3805929813534021e-03</threshold>
            <left_val>5.7452559471130371e-01</left_val>
            <right_val>-2.8839269280433655e-01</right_val></_></_>
        <_>
          <!-- tree 6 -->
          <_>
            <!-- root node -->
            <feature>
              <rects>
                <_>
                  1 7 6 7 -1.</_>
                <_>
                  3 7 2 7 3.</_></rects>
              <tilted>0</tilted></feature>
            <threshold>2.7634289115667343e-02</threshold>
            <left_val>-3.8398569822311401e-01</left_val>
            <right_val>9.3482881784439087e-01</right_val></_></_>
        <_>
          <!-- tree 7 -->
          <_>
            <!-- root node -->
            <feature>
              <rects>
                <_>
                  18 8 5 6 -1.</_>
                <_>
                  18 10 5 2 3.</_></rects>
              <tilted>0</tilted></feature>
            <threshold>1.4897229848429561e-03</threshold>
            <left_val>-8.5161042213439941e-01</left_val>
            <right_val>3.4204828739166260e-01</right_val></_></_>
        <_>
          <!-- tree 8 -->
          <_>
            <!-- root node -->
            <feature>
              <rects>
                <_>
                  5 13 5 9 -1.</_>
                <_>
                  5 16 5 3 3.</_></rects>
              <tilted>0</tilted></feature>
            <threshold>1.8863609511754476e-05</threshold>
            <left_val>-6.8662941455841064e-01</left_val>
            <right_val>7.5245511531829834e-01</right_val></_></_>
        <_>
          <!-- tree 9 -->
          <_>
            <!-- root node -->
            <feature>
              <rects>
                <_>
                  8 12 15 2 -1.</_>
                <_>
                  8 13 15 1 2.</_></rects>
              <tilted>0</tilted></feature>
            <threshold>-5.1093920774292201e-05</threshold>
            <left_val>4.6752271056175232e-01</left_val>
            <right_val>-9.1346597671508789e-01</right_val></_></_>
        <_>
          <!-- tree 10 -->
          <_>
            <!-- root node -->
            <feature>
              <rects>
                <_>
                  0 5 7 10 -1.</_>
                <_>
                  0 10 7 5 2.</_></rects>
              <tilted>0</tilted></feature>
            <threshold>3.7098990287631750e-03</threshold>
            <left_val>-9.7224748134613037e-01</left_val>
            <right_val>2.9168841242790222e-01</right_val></_></_>
        <_>
          <!-- tree 11 -->
          <_>
            <!-- root node -->
            <feature>
              <rects>
                <_>
                  14 2 4 2 -1.</_>
                <_>
                  14 2 2 2 2.</_></rects>
              <tilted>0</tilted></feature>
            <threshold>-1.3834300261805765e-05</threshold>
            <left_val>7.7265299856662750e-02</left_val>
            <right_val>-7.2907698154449463e-01</right_val></_></_>
        <_>
          <!-- tree 12 -->
          <_>
            <!-- root node -->
            <feature>
              <rects>
                <_>
                  0 9 18 6 -1.</_>
                <_>
                  0 11 18 2 3.</_></rects>
              <tilted>0</tilted></feature>
            <threshold>6.8263127468526363e-04</threshold>
            <left_val>-9.2557442188262939e-01</left_val>
            <right_val>4.0808698534965515e-01</right_val></_></_>
        <_>
          <!-- tree 13 -->
          <_>
            <!-- root node -->
            <feature>
              <rects>
                <_>
                  12 8 12 10 -1.</_>
                <_>
                  18 8 6 5 2.</_>
                <_>
                  12 13 6 5 2.</_></rects>
              <tilted>0</tilted></feature>
            <threshold>1.5787780284881592e-05</threshold>
            <left_val>-7.5509631633758545e-01</left_val>
            <right_val>-1.0755939874798059e-03</right_val></_></_>
        <_>
          <!-- tree 14 -->
          <_>
            <!-- root node -->
            <feature>
              <rects>
                <_>
                  6 0 4 4 -1.</_>
                <_>
                  8 0 2 4 2.</_></rects>
              <tilted>0</tilted></feature>
            <threshold>-1.4890490092511754e-05</threshold>
            <left_val>6.9017857313156128e-01</left_val>
            <right_val>-7.0165538787841797e-01</right_val></_></_>
        <_>
          <!-- tree 15 -->
          <_>
            <!-- root node -->
            <feature>
              <rects>
                <_>
                  0 2 24 4 -1.</_>
                <_>
                  8 2 8 4 3.</_></rects>
              <tilted>0</tilted></feature>
            <threshold>1.8213120347354561e-04</threshold>
            <left_val>-6.6652101278305054e-01</left_val>
            <right_val>6.4569509029388428e-01</right_val></_></_>
        <_>
          <!-- tree 16 -->
          <_>
            <!-- root node -->
            <feature>
              <rects>
                <_>
                  2 2 9 8 -1.</_>
                <_>
                  5 2 3 8 3.</_></rects>
              <tilted>0</tilted></feature>
            <threshold>-7.1790571382734925e-05</threshold>
            <left_val>5.3978610038757324e-01</left_val>
            <right_val>-8.3323681354522705e-01</right_val></_></_>
        <_>
          <!-- tree 17 -->
          <_>
            <!-- root node -->
            <feature>
              <rects>
                <_>
                  14 5 5 9 -1.</_>
                <_>
                  14 8 5 3 3.</_></rects>
              <tilted>0</tilted></feature>
            <threshold>1.8165330402553082e-03</threshold>
            <left_val>-4.9784290790557861e-01</left_val>
            <right_val>2.4970260262489319e-01</right_val></_></_>
        <_>
          <!-- tree 18 -->
          <_>
            <!-- root node -->
            <feature>
              <rects>
                <_>
                  5 5 5 9 -1.</_>
                <_>
                  5 8 5 3 3.</_></rects>
              <tilted>0</tilted></feature>
            <threshold>2.2906209778739139e-05</threshold>
            <left_val>-7.6899939775466919e-01</left_val>
            <right_val>5.5662822723388672e-01</right_val></_></_>
        <_>
          <!-- tree 19 -->
          <_>
            <!-- root node -->
            <feature>
              <rects>
                <_>
                  7 10 14 14 -1.</_>
                <_>
                  7 10 7 14 2.</_></rects>
              <tilted>0</tilted></feature>
            <threshold>1.0303749877493829e-04</threshold>
            <left_val>-6.2267559766769409e-01</left_val>
            <right_val>1.9576950371265411e-01</right_val></_></_>
        <_>
          <!-- tree 20 -->
          <_>
            <!-- root node -->
            <feature>
              <rects>
                <_>
                  4 11 15 2 -1.</_>
                <_>
                  9 11 5 2 3.</_></rects>
              <tilted>0</tilted></feature>
            <threshold>-2.2611040549236350e-05</threshold>
            <left_val>6.7606228590011597e-01</left_val>
            <right_val>-9.1905671358108521e-01</right_val></_></_></trees>
      <stage_threshold>-1.5234700441360474e+00</stage_threshold>
      <parent>10</parent>
      <next>-1</next></_>
    <_>
      <!-- stage 12 -->
      <trees>
        <_>
          <!-- tree 0 -->
          <_>
            <!-- root node -->
            <feature>
              <rects>
                <_>
                  0 10 24 12 -1.</_>
                <_>
                  0 14 24 4 3.</_></rects>
              <tilted>0</tilted></feature>
            <threshold>2.0431019365787506e-02</threshold>
            <left_val>-7.2900331020355225e-01</left_val>
            <right_val>9.9999147653579712e-01</right_val></_></_>
        <_>
          <!-- tree 1 -->
          <_>
            <!-- root node -->
            <feature>
              <rects>
                <_>
                  18 10 5 6 -1.</_>
                <_>
                  18 12 5 2 3.</_></rects>
              <tilted>0</tilted></feature>
            <threshold>2.3741300537949428e-05</threshold>
            <left_val>-9.6748399734497070e-01</left_val>
            <right_val>6.2838882207870483e-01</right_val></_></_>
        <_>
          <!-- tree 2 -->
          <_>
            <!-- root node -->
            <feature>
              <rects>
                <_>
                  0 1 8 4 -1.</_>
                <_>
                  4 1 4 4 2.</_></rects>
              <tilted>0</tilted></feature>
            <threshold>1.3632549780595582e-05</threshold>
            <left_val>-9.4693338871002197e-01</left_val>
            <right_val>9.9992668628692627e-01</right_val></_></_>
        <_>
          <!-- tree 3 -->
          <_>
            <!-- root node -->
            <feature>
              <rects>
                <_>
                  17 0 7 21 -1.</_>
                <_>
                  17 7 7 7 3.</_></rects>
              <tilted>0</tilted></feature>
            <threshold>3.2183870673179626e-02</threshold>
            <left_val>-1.</left_val>
            <right_val>1.</right_val></_></_>
        <_>
          <!-- tree 4 -->
          <_>
            <!-- root node -->
            <feature>
              <rects>
                <_>
                  0 0 2 1 -1.</_>
                <_>
                  1 0 1 1 2.</_></rects>
              <tilted>0</tilted></feature>
            <threshold>0.</threshold>
            <left_val>0.</left_val>
            <right_val>-1.</right_val></_></_>
        <_>
          <!-- tree 5 -->
          <_>
            <!-- root node -->
            <feature>
              <rects>
                <_>
                  20 0 4 18 -1.</_>
                <_>
                  20 6 4 6 3.</_></rects>
              <tilted>0</tilted></feature>
            <threshold>1.1761919595301151e-03</threshold>
            <left_val>-9.9970757961273193e-01</left_val>
            <right_val>1.</right_val></_></_>
        <_>
          <!-- tree 6 -->
          <_>
            <!-- root node -->
            <feature>
              <rects>
                <_>
                  0 0 2 1 -1.</_>
                <_>
                  1 0 1 1 2.</_></rects>
              <tilted>0</tilted></feature>
            <threshold>0.</threshold>
            <left_val>0.</left_val>
            <right_val>-1.</right_val></_></_>
        <_>
          <!-- tree 7 -->
          <_>
            <!-- root node -->
            <feature>
              <rects>
                <_>
                  11 2 6 22 -1.</_>
                <_>
                  11 13 6 11 2.</_></rects>
              <tilted>0</tilted></feature>
            <threshold>-2.7675108867697418e-04</threshold>
            <left_val>-1.1907769739627838e-01</left_val>
            <right_val>-9.9621677398681641e-01</right_val></_></_>
        <_>
          <!-- tree 8 -->
          <_>
            <!-- root node -->
            <feature>
              <rects>
                <_>
                  3 12 10 12 -1.</_>
                <_>
                  3 18 10 6 2.</_></rects>
              <tilted>0</tilted></feature>
            <threshold>-1.2705459957942367e-03</threshold>
            <left_val>1.</left_val>
            <right_val>-9.9888628721237183e-01</right_val></_></_>
        <_>
          <!-- tree 9 -->
          <_>
            <!-- root node -->
            <feature>
              <rects>
                <_>
                  19 3 4 12 -1.</_>
                <_>
                  19 9 4 6 2.</_></rects>
              <tilted>0</tilted></feature>
            <threshold>3.2146039884537458e-03</threshold>
            <left_val>-1.</left_val>
            <right_val>-7.4248689413070679e-01</right_val></_></_>
        <_>
          <!-- tree 10 -->
          <_>
            <!-- root node -->
            <feature>
              <rects>
                <_>
                  0 5 11 10 -1.</_>
                <_>
                  0 10 11 5 2.</_></rects>
              <tilted>0</tilted></feature>
            <threshold>1.3960449723526835e-03</threshold>
            <left_val>-1.</left_val>
            <right_val>1.0002139806747437e+00</right_val></_></_>
        <_>
          <!-- tree 11 -->
          <_>
            <!-- root node -->
            <feature>
              <rects>
                <_>
                  22 0 2 1 -1.</_>
                <_>
                  22 0 1 1 2.</_></rects>
              <tilted>0</tilted></feature>
            <threshold>0.</threshold>
            <left_val>0.</left_val>
            <right_val>-1.</right_val></_></_>
        <_>
          <!-- tree 12 -->
          <_>
            <!-- root node -->
            <feature>
              <rects>
                <_>
                  0 12 18 6 -1.</_>
                <_>
                  0 14 18 2 3.</_></rects>
              <tilted>0</tilted></feature>
            <threshold>1.3251530472189188e-03</threshold>
            <left_val>-9.9720281362533569e-01</left_val>
            <right_val>1.0000289678573608e+00</right_val></_></_>
        <_>
          <!-- tree 13 -->
          <_>
            <!-- root node -->
            <feature>
              <rects>
                <_>
                  22 0 2 1 -1.</_>
                <_>
                  22 0 1 1 2.</_></rects>
              <tilted>0</tilted></feature>
            <threshold>0.</threshold>
            <left_val>0.</left_val>
            <right_val>-1.</right_val></_></_>
        <_>
          <!-- tree 14 -->
          <_>
            <!-- root node -->
            <feature>
              <rects>
                <_>
                  0 8 19 6 -1.</_>
                <_>
                  0 10 19 2 3.</_></rects>
              <tilted>0</tilted></feature>
            <threshold>4.3318531243130565e-04</threshold>
            <left_val>-1.</left_val>
            <right_val>1.0000020265579224e+00</right_val></_></_>
        <_>
          <!-- tree 15 -->
          <_>
            <!-- root node -->
            <feature>
              <rects>
                <_>
                  22 0 2 1 -1.</_>
                <_>
                  22 0 1 1 2.</_></rects>
              <tilted>0</tilted></feature>
            <threshold>0.</threshold>
            <left_val>0.</left_val>
            <right_val>-1.</right_val></_></_>
        <_>
          <!-- tree 16 -->
          <_>
            <!-- root node -->
            <feature>
              <rects>
                <_>
                  5 7 14 2 -1.</_>
                <_>
                  12 7 7 2 2.</_></rects>
              <tilted>0</tilted></feature>
            <threshold>1.5633289876859635e-04</threshold>
            <left_val>-9.9360501766204834e-01</left_val>
            <right_val>1.0003819465637207e+00</right_val></_></_>
        <_>
          <!-- tree 17 -->
          <_>
            <!-- root node -->
            <feature>
              <rects>
                <_>
                  22 0 2 1 -1.</_>
                <_>
                  22 0 1 1 2.</_></rects>
              <tilted>0</tilted></feature>
            <threshold>0.</threshold>
            <left_val>0.</left_val>
            <right_val>-1.</right_val></_></_>
        <_>
          <!-- tree 18 -->
          <_>
            <!-- root node -->
            <feature>
              <rects>
                <_>
                  0 4 15 8 -1.</_>
                <_>
                  0 8 15 4 2.</_></rects>
              <tilted>0</tilted></feature>
            <threshold>8.7439091876149178e-03</threshold>
            <left_val>-1.</left_val>
            <right_val>1.0001050233840942e+00</right_val></_></_>
        <_>
          <!-- tree 19 -->
          <_>
            <!-- root node -->
            <feature>
              <rects>
                <_>
                  22 0 2 1 -1.</_>
                <_>
                  22 0 1 1 2.</_></rects>
              <tilted>0</tilted></feature>
            <threshold>0.</threshold>
            <left_val>0.</left_val>
            <right_val>-1.</right_val></_></_>
        <_>
          <!-- tree 20 -->
          <_>
            <!-- root node -->
            <feature>
              <rects>
                <_>
                  1 10 22 9 -1.</_>
                <_>
                  1 13 22 3 3.</_></rects>
              <tilted>0</tilted></feature>
            <threshold>3.4051261842250824e-02</threshold>
            <left_val>-9.8716217279434204e-01</left_val>
            <right_val>9.9995458126068115e-01</right_val></_></_>
        <_>
          <!-- tree 21 -->
          <_>
            <!-- root node -->
            <feature>
              <rects>
                <_>
                  13 2 11 10 -1.</_>
                <_>
                  13 7 11 5 2.</_></rects>
              <tilted>0</tilted></feature>
            <threshold>2.5491299107670784e-02</threshold>
            <left_val>-1.</left_val>
            <right_val>1.</right_val></_></_>
        <_>
          <!-- tree 22 -->
          <_>
            <!-- root node -->
            <feature>
              <rects>
                <_>
                  0 0 2 1 -1.</_>
                <_>
                  1 0 1 1 2.</_></rects>
              <tilted>0</tilted></feature>
            <threshold>0.</threshold>
            <left_val>0.</left_val>
            <right_val>-1.</right_val></_></_>
        <_>
          <!-- tree 23 -->
          <_>
            <!-- root node -->
            <feature>
              <rects>
                <_>
                  2 8 20 6 -1.</_>
                <_>
                  2 10 20 2 3.</_></rects>
              <tilted>0</tilted></feature>
            <threshold>8.2250620471313596e-04</threshold>
            <left_val>-1.</left_val>
            <right_val>1.</right_val></_></_>
        <_>
          <!-- tree 24 -->
          <_>
            <!-- root node -->
            <feature>
              <rects>
                <_>
                  0 0 2 1 -1.</_>
                <_>
                  1 0 1 1 2.</_></rects>
              <tilted>0</tilted></feature>
            <threshold>0.</threshold>
            <left_val>0.</left_val>
            <right_val>-1.</right_val></_></_>
        <_>
          <!-- tree 25 -->
          <_>
            <!-- root node -->
            <feature>
              <rects>
                <_>
                  1 0 22 9 -1.</_>
                <_>
                  1 3 22 3 3.</_></rects>
              <tilted>0</tilted></feature>
            <threshold>-2.5189679116010666e-02</threshold>
            <left_val>1.</left_val>
            <right_val>-9.9917751550674438e-01</right_val></_></_>
        <_>
          <!-- tree 26 -->
          <_>
            <!-- root node -->
            <feature>
              <rects>
                <_>
                  6 3 2 20 -1.</_>
                <_>
                  6 13 2 10 2.</_></rects>
              <tilted>0</tilted></feature>
            <threshold>-9.7115036624018103e-05</threshold>
            <left_val>1.</left_val>
            <right_val>-9.9726551771163940e-01</right_val></_></_>
        <_>
          <!-- tree 27 -->
          <_>
            <!-- root node -->
            <feature>
              <rects>
                <_>
                  13 0 2 12 -1.</_>
                <_>
                  14 0 1 6 2.</_>
                <_>
                  13 6 1 6 2.</_></rects>
              <tilted>0</tilted></feature>
            <threshold>-2.2574180547962897e-05</threshold>
            <left_val>1.1890459805727005e-01</left_val>
            <right_val>-9.8029267787933350e-01</right_val></_></_>
        <_>
          <!-- tree 28 -->
          <_>
            <!-- root node -->
            <feature>
              <rects>
                <_>
                  0 10 13 2 -1.</_>
                <_>
                  0 11 13 1 2.</_></rects>
              <tilted>0</tilted></feature>
            <threshold>1.6421940017607994e-05</threshold>
            <left_val>-9.3844211101531982e-01</left_val>
            <right_val>9.9987047910690308e-01</right_val></_></_>
        <_>
          <!-- tree 29 -->
          <_>
            <!-- root node -->
            <feature>
              <rects>
                <_>
                  6 4 16 8 -1.</_>
                <_>
                  14 4 8 4 2.</_>
                <_>
                  6 8 8 4 2.</_></rects>
              <tilted>0</tilted></feature>
            <threshold>-9.8829239141196012e-04</threshold>
            <left_val>2.4051679670810699e-01</left_val>
            <right_val>-9.8838388919830322e-01</right_val></_></_>
        <_>
          <!-- tree 30 -->
          <_>
            <!-- root node -->
            <feature>
              <rects>
                <_>
                  4 2 14 12 -1.</_>
                <_>
                  4 2 7 6 2.</_>
                <_>
                  11 8 7 6 2.</_></rects>
              <tilted>0</tilted></feature>
            <threshold>-9.2728558229282498e-05</threshold>
            <left_val>1.</left_val>
            <right_val>-9.6521592140197754e-01</right_val></_></_>
        <_>
          <!-- tree 31 -->
          <_>
            <!-- root node -->
            <feature>
              <rects>
                <_>
                  17 11 6 1 -1.</_>
                <_>
                  19 11 2 1 3.</_></rects>
              <tilted>0</tilted></feature>
            <threshold>6.0142879374325275e-03</threshold>
            <left_val>-7.7751767635345459e-01</left_val>
            <right_val>1.</right_val></_></_></trees>
      <stage_threshold>-1.6885420083999634e+00</stage_threshold>
      <parent>11</parent>
      <next>-1</next></_></stages></result_haar_25_995_5>
</opencv_storage>
