<?xml version="1.0"?>
<opencv_storage>
<cascade type_id="opencv-haar-classifier"><size>
    24 24</size>
  <stages>
    <_>
      <trees>
        <_>
          <_>
            <feature>
              <rects>
                <_>
                  0 1 9 21 -1.</_>
                <_>
                  0 8 9 7 3.</_></rects>
              <tilted>0</tilted></feature>
            <threshold>1.5951439738273621e-01</threshold>
            <left_val>-9.5116772823779183e-01</left_val>
            <right_val>8.4688090737240596e-01</right_val></_></_>
        <_>
          <_>
            <feature>
              <rects>
                <_>
                  18 1 5 21 -1.</_>
                <_>
                  18 8 5 7 3.</_></rects>
              <tilted>0</tilted></feature>
            <threshold>1.0657959431409836e-01</threshold>
            <left_val>-8.4573969196286958e-01</left_val>
            <right_val>7.5312208501983746e-01</right_val></_></_></trees>
      <stage_threshold>-1.9804564118385315e-01</stage_threshold>
      <parent>-1</parent>
      <next>-1</next></_>
    <_>
      <trees>
        <_>
          <_>
            <feature>
              <rects>
                <_>
                  14 5 9 6 -1.</_>
                <_>
                  17 5 3 6 3.</_></rects>
              <tilted>0</tilted></feature>
            <threshold>-2.5098446756601334e-02</threshold>
            <left_val>7.7018633540372661e-01</left_val>
            <right_val>-7.1953578336557344e-01</right_val></_></_>
        <_>
          <_>
            <feature>
              <rects>
                <_>
                  0 6 9 5 -1.</_>
                <_>
                  3 6 3 5 3.</_></rects>
              <tilted>0</tilted></feature>
            <threshold>-3.1039047986268997e-02</threshold>
            <left_val>8.1326559640541962e-01</left_val>
            <right_val>-5.9230993588237268e-01</right_val></_></_>
        <_>
          <_>
            <feature>
              <rects>
                <_>
                  0 4 24 6 -1.</_>
                <_>
                  0 7 24 3 2.</_></rects>
              <tilted>0</tilted></feature>
            <threshold>5.6827642023563385e-02</threshold>
            <left_val>-8.5743477448732053e-01</left_val>
            <right_val>5.0502874258429953e-01</right_val></_></_></trees>
      <stage_threshold>-8.0681699514389038e-01</stage_threshold>
      <parent>0</parent>
      <next>-1</next></_>
    <_>
      <trees>
        <_>
          <_>
            <feature>
              <rects>
                <_>
                  10 3 3 15 -1.</_>
                <_>
                  10 8 3 5 3.</_></rects>
              <tilted>0</tilted></feature>
            <threshold>3.6396298091858625e-03</threshold>
            <left_val>6.8234250221828718e-01</left_val>
            <right_val>-8.8087056128293229e-01</right_val></_></_>
        <_>
          <_>
            <feature>
              <rects>
                <_>
                  17 10 6 8 -1.</_>
                <_>
                  19 10 2 8 3.</_></rects>
              <tilted>0</tilted></feature>
            <threshold>-3.0042953789234161e-02</threshold>
            <left_val>9.3529458647640129e-01</left_val>
            <right_val>-5.3420159961330693e-01</right_val></_></_>
        <_>
          <_>
            <feature>
              <rects>
                <_>
                  0 14 24 6 -1.</_>
                <_>
                  0 17 24 3 2.</_></rects>
              <tilted>0</tilted></feature>
            <threshold>-5.5280148983001709e-02</threshold>
            <left_val>5.4967973484672672e-01</left_val>
            <right_val>-8.8258883872949501e-01</right_val></_></_></trees>
      <stage_threshold>-8.6539244651794434e-01</stage_threshold>
      <parent>1</parent>
      <next>-1</next></_>
    <_>
      <trees>
        <_>
          <_>
            <feature>
              <rects>
                <_>
                  1 6 6 8 -1.</_>
                <_>
                  3 6 2 8 3.</_></rects>
              <tilted>0</tilted></feature>
            <threshold>-4.0017679333686829e-02</threshold>
            <left_val>8.5583224115334200e-01</left_val>
            <right_val>-5.2789005658853194e-01</right_val></_></_>
        <_>
          <_>
            <feature>
              <rects>
                <_>
                  14 6 9 5 -1.</_>
                <_>
                  17 6 3 5 3.</_></rects>
              <tilted>0</tilted></feature>
            <threshold>-2.6272909715771675e-02</threshold>
            <left_val>6.5131141764407186e-01</left_val>
            <right_val>-5.7583157791977480e-01</right_val></_></_>
        <_>
          <_>
            <feature>
              <rects>
                <_>
                  0 4 24 16 -1.</_>
                <_>
                  8 4 8 16 3.</_></rects>
              <tilted>0</tilted></feature>
            <threshold>2.8454196453094482e-01</threshold>
            <left_val>-4.2796746659163493e-01</left_val>
            <right_val>8.2542960850113634e-01</right_val></_></_>
        <_>
          <_>
            <feature>
              <rects>
                <_>
                  0 13 14 6 -1.</_>
                <_>
                  0 13 7 3 2.</_>
                <_>
                  7 16 7 3 2.</_></rects>
              <tilted>0</tilted></feature>
            <threshold>8.8868476450443268e-03</threshold>
            <left_val>-7.8901515377012088e-01</left_val>
            <right_val>4.7361503074193528e-01</right_val></_></_></trees>
      <stage_threshold>-1.0673072338104248e+00</stage_threshold>
      <parent>2</parent>
      <next>-1</next></_>
    <_>
      <trees>
        <_>
          <_>
            <feature>
              <rects>
                <_>
                  17 8 6 10 -1.</_>
                <_>
                  19 8 2 10 3.</_></rects>
              <tilted>0</tilted></feature>
            <threshold>-4.3844796717166901e-02</threshold>
            <left_val>8.7306064880112833e-01</left_val>
            <right_val>-4.7947327652983390e-01</right_val></_></_>
        <_>
          <_>
            <feature>
              <rects>
                <_>
                  5 3 18 10 -1.</_>
                <_>
                  5 3 9 5 2.</_>
                <_>
                  14 8 9 5 2.</_></rects>
              <tilted>0</tilted></feature>
            <threshold>8.6216079071164131e-03</threshold>
            <left_val>-8.8074102139448207e-01</left_val>
            <right_val>4.5677741878756389e-01</right_val></_></_>
        <_>
          <_>
            <feature>
              <rects>
                <_>
                  0 1 23 21 -1.</_>
                <_>
                  0 8 23 7 3.</_></rects>
              <tilted>0</tilted></feature>
            <threshold>3.4660792350769043e-01</threshold>
            <left_val>-9.2500703265037854e-01</left_val>
            <right_val>3.4582710171092801e-01</right_val></_></_>
        <_>
          <_>
            <feature>
              <rects>
                <_>
                  4 6 14 8 -1.</_>
                <_>
                  4 6 7 4 2.</_>
                <_>
                  11 10 7 4 2.</_></rects>
              <tilted>0</tilted></feature>
            <threshold>1.6776474658399820e-03</threshold>
            <left_val>3.3784043031601474e-01</left_val>
            <right_val>-9.5260740014131340e-01</right_val></_></_>
        <_>
          <_>
            <feature>
              <rects>
                <_>
                  18 7 6 7 -1.</_>
                <_>
                  20 7 2 7 3.</_></rects>
              <tilted>0</tilted></feature>
            <threshold>4.2046219110488892e-02</threshold>
            <left_val>-5.0240475515727390e-01</left_val>
            <right_val>8.5790569095403735e-01</right_val></_></_>
        <_>
          <_>
            <feature>
              <rects>
                <_>
                  1 8 6 12 -1.</_>
                <_>
                  3 8 2 12 3.</_></rects>
              <tilted>0</tilted></feature>
            <threshold>-5.8918677270412445e-02</threshold>
            <left_val>9.1258633264549827e-01</left_val>
            <right_val>-3.5142582848909615e-01</right_val></_></_>
        <_>
          <_>
            <feature>
              <rects>
                <_>
                  9 13 4 2 -1.</_>
                <_>
                  9 14 4 1 2.</_></rects>
              <tilted>0</tilted></feature>
            <threshold>-5.6877447059378028e-04</threshold>
            <left_val>-9.7979888061533060e-01</left_val>
            <right_val>4.2632105169719187e-01</right_val></_></_></trees>
      <stage_threshold>-1.1040562391281128e+00</stage_threshold>
      <parent>3</parent>
      <next>-1</next></_>
    <_>
      <trees>
        <_>
          <_>
            <feature>
              <rects>
                <_>
                  0 5 14 4 -1.</_>
                <_>
                  0 5 7 2 2.</_>
                <_>
                  7 7 7 2 2.</_></rects>
              <tilted>0</tilted></feature>
            <threshold>-1.4706409536302090e-02</threshold>
            <left_val>6.2452830188679642e-01</left_val>
            <right_val>-7.0425531914893624e-01</right_val></_></_>
        <_>
          <_>
            <feature>
              <rects>
                <_>
                  8 13 9 2 -1.</_>
                <_>
                  8 14 9 1 2.</_></rects>
              <tilted>0</tilted></feature>
            <threshold>2.9719102894887328e-04</threshold>
            <left_val>3.7446278197507832e-01</left_val>
            <right_val>-9.9503535597588177e-01</right_val></_></_></trees>
      <stage_threshold>-3.2979252934455872e-01</stage_threshold>
      <parent>4</parent>
      <next>-1</next></_>
    <_>
      <trees>
        <_>
          <_>
            <feature>
              <rects>
                <_>
                  8 5 8 4 -1.</_>
                <_>
                  8 7 8 2 2.</_></rects>
              <tilted>0</tilted></feature>
            <threshold>-2.1520130758290179e-05</threshold>
            <left_val>5.5713020372011335e-01</left_val>
            <right_val>-7.2215843857634920e-01</right_val></_></_>
        <_>
          <_>
            <feature>
              <rects>
                <_>
                  0 3 10 8 -1.</_>
                <_>
                  0 7 10 4 2.</_></rects>
              <tilted>0</tilted></feature>
            <threshold>4.6350695192813873e-02</threshold>
            <left_val>-8.8715106265176114e-01</left_val>
            <right_val>4.3031084801522196e-01</right_val></_></_>
        <_>
          <_>
            <feature>
              <rects>
                <_>
                  19 10 4 10 -1.</_>
                <_>
                  19 15 4 5 2.</_></rects>
              <tilted>0</tilted></feature>
            <threshold>-2.3660842329263687e-02</threshold>
            <left_val>3.6632615236563426e-01</left_val>
            <right_val>-8.9620786005844433e-01</right_val></_></_>
        <_>
          <_>
            <feature>
              <rects>
                <_>
                  14 7 9 4 -1.</_>
                <_>
                  17 7 3 4 3.</_></rects>
              <tilted>0</tilted></feature>
            <threshold>-1.8044650554656982e-02</threshold>
            <left_val>4.7621758119823027e-01</left_val>
            <right_val>-6.4234975565758001e-01</right_val></_></_>
        <_>
          <_>
            <feature>
              <rects>
                <_>
                  1 8 5 6 -1.</_>
                <_>
                  1 10 5 2 3.</_></rects>
              <tilted>0</tilted></feature>
            <threshold>3.4751603379845619e-04</threshold>
            <left_val>-9.3014347038544609e-01</left_val>
            <right_val>3.4789615223117010e-01</right_val></_></_></trees>
      <stage_threshold>-1.4825090169906616e+00</stage_threshold>
      <parent>5</parent>
      <next>-1</next></_>
    <_>
      <trees>
        <_>
          <_>
            <feature>
              <rects>
                <_>
                  0 5 9 11 -1.</_>
                <_>
                  3 5 3 11 3.</_></rects>
              <tilted>0</tilted></feature>
            <threshold>-5.2004966884851456e-02</threshold>
            <left_val>7.3542600896860988e-01</left_val>
            <right_val>-5.9205776173285851e-01</right_val></_></_>
        <_>
          <_>
            <feature>
              <rects>
                <_>
                  16 6 6 4 -1.</_>
                <_>
                  18 6 2 4 3.</_></rects>
              <tilted>0</tilted></feature>
            <threshold>-1.6487378627061844e-02</threshold>
            <left_val>6.7802095430579723e-01</left_val>
            <right_val>-4.9482785536315688e-01</right_val></_></_>
        <_>
          <_>
            <feature>
              <rects>
                <_>
                  1 6 7 6 -1.</_>
                <_>
                  1 8 7 2 3.</_></rects>
              <tilted>0</tilted></feature>
            <threshold>1.0962290689349174e-03</threshold>
            <left_val>-9.2236038377142149e-01</left_val>
            <right_val>3.6500647450188323e-01</right_val></_></_>
        <_>
          <_>
            <feature>
              <rects>
                <_>
                  0 10 23 9 -1.</_>
                <_>
                  0 13 23 3 3.</_></rects>
              <tilted>0</tilted></feature>
            <threshold>2.9659984633326530e-02</threshold>
            <left_val>-9.1887110298494223e-01</left_val>
            <right_val>3.2727779911041560e-01</right_val></_></_></trees>
      <stage_threshold>-5.0911939144134521e-01</stage_threshold>
      <parent>6</parent>
      <next>-1</next></_>
    <_>
      <trees>
        <_>
          <_>
            <feature>
              <rects>
                <_>
                  5 4 18 6 -1.</_>
                <_>
                  5 4 9 3 2.</_>
                <_>
                  14 7 9 3 2.</_></rects>
              <tilted>0</tilted></feature>
            <threshold>1.7043087631464005e-02</threshold>
            <left_val>-7.7858002406738891e-01</left_val>
            <right_val>5.5346449957229282e-01</right_val></_></_>
        <_>
          <_>
            <feature>
              <rects>
                <_>
                  0 9 3 7 -1.</_>
                <_>
                  1 9 1 7 3.</_></rects>
              <tilted>0</tilted></feature>
            <threshold>1.3451107777655125e-02</threshold>
            <left_val>-4.2470003680956503e-01</left_val>
            <right_val>8.0085505526650758e-01</right_val></_></_>
        <_>
          <_>
            <feature>
              <rects>
                <_>
                  17 8 7 6 -1.</_>
                <_>
                  17 10 7 2 3.</_></rects>
              <tilted>0</tilted></feature>
            <threshold>1.0015801526606083e-03</threshold>
            <left_val>-8.6873774622947553e-01</left_val>
            <right_val>3.7520049516089699e-01</right_val></_></_>
        <_>
          <_>
            <feature>
              <rects>
                <_>
                  11 1 8 12 -1.</_>
                <_>
                  11 5 8 4 3.</_></rects>
              <tilted>0</tilted></feature>
            <threshold>-2.7511669322848320e-03</threshold>
            <left_val>-9.4831409915271458e-01</left_val>
            <right_val>2.9954846347050679e-01</right_val></_></_></trees>
      <stage_threshold>-5.4691427946090698e-01</stage_threshold>
      <parent>7</parent>
      <next>-1</next></_>
    <_>
      <trees>
        <_>
          <_>
            <feature>
              <rects>
                <_>
                  17 10 6 6 -1.</_>
                <_>
                  19 10 2 6 3.</_></rects>
              <tilted>0</tilted></feature>
            <threshold>-3.3782571554183960e-02</threshold>
            <left_val>7.4167776298268973e-01</left_val>
            <right_val>-4.4595676541233981e-01</right_val></_></_>
        <_>
          <_>
            <feature>
              <rects>
                <_>
                  16 19 8 1 -1.</_>
                <_>
                  20 19 4 1 2.</_></rects>
              <tilted>0</tilted></feature>
            <threshold>-2.2985001123743132e-05</threshold>
            <left_val>4.0428023830060045e-01</left_val>
            <right_val>-7.6141615863024859e-01</right_val></_></_>
        <_>
          <_>
            <feature>
              <rects>
                <_>
                  0 10 3 5 -1.</_>
                <_>
                  1 10 1 5 3.</_></rects>
              <tilted>0</tilted></feature>
            <threshold>1.1652050539851189e-02</threshold>
            <left_val>-3.7658371178273981e-01</left_val>
            <right_val>7.5695546820144233e-01</right_val></_></_>
        <_>
          <_>
            <feature>
              <rects>
                <_>
                  5 6 6 9 -1.</_>
                <_>
                  7 6 2 9 3.</_></rects>
              <tilted>0</tilted></feature>
            <threshold>1.8893623724579811e-02</threshold>
            <left_val>-4.1476789540560427e-01</left_val>
            <right_val>6.6340448554405906e-01</right_val></_></_>
        <_>
          <_>
            <feature>
              <rects>
                <_>
                  0 9 8 9 -1.</_>
                <_>
                  0 12 8 3 3.</_></rects>
              <tilted>0</tilted></feature>
            <threshold>1.2772924266755581e-02</threshold>
            <left_val>-8.9465033243195291e-01</left_val>
            <right_val>3.2860951158920138e-01</right_val></_></_>
        <_>
          <_>
            <feature>
              <rects>
                <_>
                  16 2 4 2 -1.</_>
                <_>
                  18 2 2 2 2.</_></rects>
              <tilted>0</tilted></feature>
            <threshold>-1.0643554851412773e-03</threshold>
            <left_val>-9.4259440578515397e-01</left_val>
            <right_val>2.3003305321143855e-01</right_val></_></_></trees>
      <stage_threshold>-1.4400819540023804e+00</stage_threshold>
      <parent>8</parent>
      <next>-1</next></_>
    <_>
      <trees>
        <_>
          <_>
            <feature>
              <rects>
                <_>
                  9 13 5 6 -1.</_>
                <_>
                  9 16 5 3 2.</_></rects>
              <tilted>0</tilted></feature>
            <threshold>-1.2962066102772951e-03</threshold>
            <left_val>-7.9863945578231310e-01</left_val>
            <right_val>4.6403162055337049e-01</right_val></_></_>
        <_>
          <_>
            <feature>
              <rects>
                <_>
                  19 9 4 9 -1.</_>
                <_>
                  19 12 4 3 3.</_></rects>
              <tilted>0</tilted></feature>
            <threshold>6.3497778028249741e-03</threshold>
            <left_val>-8.7474962567450876e-01</left_val>
            <right_val>2.9839291869051709e-01</right_val></_></_>
        <_>
          <_>
            <feature>
              <rects>
                <_>
                  16 6 7 6 -1.</_>
                <_>
                  16 8 7 2 3.</_></rects>
              <tilted>0</tilted></feature>
            <threshold>2.1427799947559834e-03</threshold>
            <left_val>-9.2658806190981013e-01</left_val>
            <right_val>3.1349102027544590e-01</right_val></_></_>
        <_>
          <_>
            <feature>
              <rects>
                <_>
                  10 4 14 16 -1.</_>
                <_>
                  17 4 7 16 2.</_></rects>
              <tilted>0</tilted></feature>
            <threshold>-1.2791661918163300e-01</threshold>
            <left_val>6.6374883396804041e-01</left_val>
            <right_val>-4.5322654391883277e-01</right_val></_></_>
        <_>
          <_>
            <feature>
              <rects>
                <_>
                  9 5 8 4 -1.</_>
                <_>
                  9 7 8 2 2.</_></rects>
              <tilted>0</tilted></feature>
            <threshold>-1.9406565115787089e-05</threshold>
            <left_val>4.7757346793042632e-01</left_val>
            <right_val>-7.1504026565816348e-01</right_val></_></_></trees>
      <stage_threshold>-1.3355511426925659e+00</stage_threshold>
      <parent>9</parent>
      <next>-1</next></_>
    <_>
      <trees>
        <_>
          <_>
            <feature>
              <rects>
                <_>
                  0 12 23 12 -1.</_>
                <_>
                  0 18 23 6 2.</_></rects>
              <tilted>0</tilted></feature>
            <threshold>-1.4850008487701416e-01</threshold>
            <left_val>3.8163558106170492e-01</left_val>
            <right_val>-8.7788778877887785e-01</right_val></_></_>
        <_>
          <_>
            <feature>
              <rects>
                <_>
                  22 6 2 12 -1.</_>
                <_>
                  23 6 1 12 2.</_></rects>
              <tilted>0</tilted></feature>
            <threshold>-2.1745327860116959e-02</threshold>
            <left_val>8.4736240086219172e-01</left_val>
            <right_val>-4.2091391536829570e-01</right_val></_></_>
        <_>
          <_>
            <feature>
              <rects>
                <_>
                  5 13 15 9 -1.</_>
                <_>
                  5 16 15 3 3.</_></rects>
              <tilted>0</tilted></feature>
            <threshold>-6.3554011285305023e-03</threshold>
            <left_val>-8.3782469720382358e-01</left_val>
            <right_val>3.6736485309114308e-01</right_val></_></_>
        <_>
          <_>
            <feature>
              <rects>
                <_>
                  0 0 9 9 -1.</_>
                <_>
                  0 3 9 3 3.</_></rects>
              <tilted>0</tilted></feature>
            <threshold>-1.4738323166966438e-02</threshold>
            <left_val>2.9531854520373640e-01</left_val>
            <right_val>-8.6959411863609148e-01</right_val></_></_></trees>
      <stage_threshold>-6.3611829280853271e-01</stage_threshold>
      <parent>10</parent>
      <next>-1</next></_>
    <_>
      <trees>
        <_>
          <_>
            <feature>
              <rects>
                <_>
                  1 7 6 4 -1.</_>
                <_>
                  3 7 2 4 3.</_></rects>
              <tilted>0</tilted></feature>
            <threshold>-2.3855175822973251e-02</threshold>
            <left_val>6.4988558352402748e-01</left_val>
            <right_val>-5.0444049733570795e-01</right_val></_></_>
        <_>
          <_>
            <feature>
              <rects>
                <_>
                  8 14 15 4 -1.</_>
                <_>
                  8 16 15 2 2.</_></rects>
              <tilted>0</tilted></feature>
            <threshold>-5.2012195810675621e-03</threshold>
            <left_val>3.3916043435686832e-01</left_val>
            <right_val>-8.9558485973325153e-01</right_val></_></_>
        <_>
          <_>
            <feature>
              <rects>
                <_>
                  17 12 6 4 -1.</_>
                <_>
                  19 12 2 4 3.</_></rects>
              <tilted>0</tilted></feature>
            <threshold>-2.9860744252800941e-02</threshold>
            <left_val>7.3256638572998289e-01</left_val>
            <right_val>-3.9097752457015400e-01</right_val></_></_>
        <_>
          <_>
            <feature>
              <rects>
                <_>
                  0 18 8 3 -1.</_>
                <_>
                  4 18 4 3 2.</_></rects>
              <tilted>0</tilted></feature>
            <threshold>6.3939706888049841e-04</threshold>
            <left_val>-7.1377260876542337e-01</left_val>
            <right_val>4.4084811425464110e-01</right_val></_></_>
        <_>
          <_>
            <feature>
              <rects>
                <_>
                  20 7 4 8 -1.</_>
                <_>
                  22 7 2 8 2.</_></rects>
              <tilted>0</tilted></feature>
            <threshold>-3.3424369990825653e-02</threshold>
            <left_val>7.6810095392933553e-01</left_val>
            <right_val>-3.6170844852955036e-01</right_val></_></_>
        <_>
          <_>
            <feature>
              <rects>
                <_>
                  0 9 7 6 -1.</_>
                <_>
                  0 11 7 2 3.</_></rects>
              <tilted>0</tilted></feature>
            <threshold>1.0361780878156424e-03</threshold>
            <left_val>-9.3717820876021929e-01</left_val>
            <right_val>2.8192985910239682e-01</right_val></_></_>
        <_>
          <_>
            <feature>
              <rects>
                <_>
                  0 9 24 4 -1.</_>
                <_>
                  0 9 12 2 2.</_>
                <_>
                  12 11 12 2 2.</_></rects>
              <tilted>0</tilted></feature>
            <threshold>-6.9675510749220848e-03</threshold>
            <left_val>-8.6057273258730183e-01</left_val>
            <right_val>2.8387489847670344e-01</right_val></_></_></trees>
      <stage_threshold>-1.1460584402084351e+00</stage_threshold>
      <parent>11</parent>
      <next>-1</next></_>
    <_>
      <trees>
        <_>
          <_>
            <feature>
              <rects>
                <_>
                  1 8 6 10 -1.</_>
                <_>
                  3 8 2 10 3.</_></rects>
              <tilted>0</tilted></feature>
            <threshold>-5.4379660636186600e-02</threshold>
            <left_val>6.5994962216624675e-01</left_val>
            <right_val>-4.3449419568823383e-01</right_val></_></_>
        <_>
          <_>
            <feature>
              <rects>
                <_>
                  11 7 9 2 -1.</_>
                <_>
                  14 7 3 2 3.</_></rects>
              <tilted>0</tilted></feature>
            <threshold>2.2143071517348289e-02</threshold>
            <left_val>-3.3712751333921170e-01</left_val>
            <right_val>7.6006974858180898e-01</right_val></_></_>
        <_>
          <_>
            <feature>
              <rects>
                <_>
                  3 2 6 1 -1.</_>
                <_>
                  6 2 3 1 2.</_></rects>
              <tilted>0</tilted></feature>
            <threshold>7.2066986467689276e-04</threshold>
            <left_val>3.3061694753447096e-01</left_val>
            <right_val>-8.5287981769302645e-01</right_val></_></_>
        <_>
          <_>
            <feature>
              <rects>
                <_>
                  0 8 6 10 -1.</_>
                <_>
                  2 8 2 10 3.</_></rects>
              <tilted>0</tilted></feature>
            <threshold>6.7413069307804108e-02</threshold>
            <left_val>-3.4212862944655487e-01</left_val>
            <right_val>9.0739143140124512e-01</right_val></_></_>
        <_>
          <_>
            <feature>
              <rects>
                <_>
                  6 0 14 11 -1.</_>
                <_>
                  13 0 7 11 2.</_></rects>
              <tilted>0</tilted></feature>
            <threshold>1.1265892535448074e-02</threshold>
            <left_val>4.2383653789361941e-01</left_val>
            <right_val>-9.5456311442669706e-01</right_val></_></_></trees>
      <stage_threshold>-6.4325267076492310e-01</stage_threshold>
      <parent>12</parent>
      <next>-1</next></_>
    <_>
      <trees>
        <_>
          <_>
            <feature>
              <rects>
                <_>
                  10 1 6 9 -1.</_>
                <_>
                  13 1 3 9 2.</_></rects>
              <tilted>0</tilted></feature>
            <threshold>4.2886975279543549e-05</threshold>
            <left_val>-7.7061855670103097e-01</left_val>
            <right_val>4.8856209150327790e-01</right_val></_></_>
        <_>
          <_>
            <feature>
              <rects>
                <_>
                  4 0 10 14 -1.</_>
                <_>
                  9 0 5 14 2.</_></rects>
              <tilted>0</tilted></feature>
            <threshold>-1.7791062593460083e-02</threshold>
            <left_val>-8.4762200125164933e-01</left_val>
            <right_val>2.4824399338399272e-01</right_val></_></_>
        <_>
          <_>
            <feature>
              <rects>
                <_>
                  10 8 14 4 -1.</_>
                <_>
                  10 8 7 2 2.</_>
                <_>
                  17 10 7 2 2.</_></rects>
              <tilted>0</tilted></feature>
            <threshold>6.9710095413029194e-03</threshold>
            <left_val>2.6605996758362799e-01</left_val>
            <right_val>-8.5728362803751457e-01</right_val></_></_>
        <_>
          <_>
            <feature>
              <rects>
                <_>
                  14 8 1 6 -1.</_>
                <_>
                  14 11 1 3 2.</_></rects>
              <tilted>0</tilted></feature>
            <threshold>2.8899215976707637e-04</threshold>
            <left_val>2.1562137621734631e-01</left_val>
            <right_val>-9.0371184032845797e-01</right_val></_></_></trees>
      <stage_threshold>-1.1365592479705811e+00</stage_threshold>
      <parent>13</parent>
      <next>-1</next></_>
    <_>
      <trees>
        <_>
          <_>
            <feature>
              <rects>
                <_>
                  3 5 18 1 -1.</_>
                <_>
                  9 5 6 1 3.</_></rects>
              <tilted>0</tilted></feature>
            <threshold>3.3664301037788391e-02</threshold>
            <left_val>-3.2952924393724309e-01</left_val>
            <right_val>7.7257525083612044e-01</right_val></_></_>
        <_>
          <_>
            <feature>
              <rects>
                <_>
                  19 19 4 1 -1.</_>
                <_>
                  21 19 2 1 2.</_></rects>
              <tilted>0</tilted></feature>
            <threshold>-2.4568911612732336e-05</threshold>
            <left_val>4.2326807552175066e-01</left_val>
            <right_val>-6.7062445955074546e-01</right_val></_></_>
        <_>
          <_>
            <feature>
              <rects>
                <_>
                  17 8 6 7 -1.</_>
                <_>
                  19 8 2 7 3.</_></rects>
              <tilted>0</tilted></feature>
            <threshold>-6.2908872961997986e-02</threshold>
            <left_val>7.5569684132871939e-01</left_val>
            <right_val>-3.2439444104899251e-01</right_val></_></_>
        <_>
          <_>
            <feature>
              <rects>
                <_>
                  10 5 7 12 -1.</_>
                <_>
                  10 11 7 6 2.</_></rects>
              <tilted>0</tilted></feature>
            <threshold>-1.4363933354616165e-02</threshold>
            <left_val>-9.9250959066557320e-01</left_val>
            <right_val>2.4216128192609249e-01</right_val></_></_>
        <_>
          <_>
            <feature>
              <rects>
                <_>
                  20 4 4 2 -1.</_>
                <_>
                  22 4 2 2 2.</_></rects>
              <tilted>0</tilted></feature>
            <threshold>-8.4616185631603003e-05</threshold>
            <left_val>3.5636527448710931e-01</left_val>
            <right_val>-5.7565259142967595e-01</right_val></_></_>
        <_>
          <_>
            <feature>
              <rects>
                <_>
                  5 3 12 1 -1.</_>
                <_>
                  11 3 6 1 2.</_></rects>
              <tilted>0</tilted></feature>
            <threshold>-1.0215239599347115e-03</threshold>
            <left_val>-9.4568179999472146e-01</left_val>
            <right_val>2.3655191938243481e-01</right_val></_></_>
        <_>
          <_>
            <feature>
              <rects>
                <_>
                  20 11 3 4 -1.</_>
                <_>
                  20 13 3 2 2.</_></rects>
              <tilted>0</tilted></feature>
            <threshold>-9.2272076290100813e-04</threshold>
            <left_val>2.5177017137140428e-01</left_val>
            <right_val>-6.6606678307901268e-01</right_val></_></_></trees>
      <stage_threshold>-1.1697173118591309e+00</stage_threshold>
      <parent>14</parent>
      <next>-1</next></_>
    <_>
      <trees>
        <_>
          <_>
            <feature>
              <rects>
                <_>
                  6 5 8 4 -1.</_>
                <_>
                  6 7 8 2 2.</_></rects>
              <tilted>0</tilted></feature>
            <threshold>-4.5980552386026829e-05</threshold>
            <left_val>4.3358395989975729e-01</left_val>
            <right_val>-6.4632627646326279e-01</right_val></_></_>
        <_>
          <_>
            <feature>
              <rects>
                <_>
                  0 3 24 12 -1.</_>
                <_>
                  0 7 24 4 3.</_></rects>
              <tilted>0</tilted></feature>
            <threshold>7.7718824148178101e-02</threshold>
            <left_val>-8.1224369634500837e-01</left_val>
            <right_val>3.1774599927183761e-01</right_val></_></_>
        <_>
          <_>
            <feature>
              <rects>
                <_>
                  22 7 2 10 -1.</_>
                <_>
                  23 7 1 10 2.</_></rects>
              <tilted>0</tilted></feature>
            <threshold>-1.1727569624781609e-02</threshold>
            <left_val>5.7912321372822329e-01</left_val>
            <right_val>-4.1826371761555142e-01</right_val></_></_>
        <_>
          <_>
            <feature>
              <rects>
                <_>
                  6 2 12 2 -1.</_>
                <_>
                  12 2 6 2 2.</_></rects>
              <tilted>0</tilted></feature>
            <threshold>2.1669983398169279e-03</threshold>
            <left_val>2.7861861923339870e-01</left_val>
            <right_val>-8.5328782610537512e-01</right_val></_></_>
        <_>
          <_>
            <feature>
              <rects>
                <_>
                  6 4 6 8 -1.</_>
                <_>
                  8 4 2 8 3.</_></rects>
              <tilted>0</tilted></feature>
            <threshold>1.7042173072695732e-02</threshold>
            <left_val>-4.4116974350798871e-01</left_val>
            <right_val>6.1069465594746675e-01</right_val></_></_>
        <_>
          <_>
            <feature>
              <rects>
                <_>
                  17 8 7 4 -1.</_>
                <_>
                  17 10 7 2 2.</_></rects>
              <tilted>0</tilted></feature>
            <threshold>1.9944563973695040e-04</threshold>
            <left_val>-8.6807272583705719e-01</left_val>
            <right_val>2.4237182269854887e-01</right_val></_></_></trees>
      <stage_threshold>-8.5162228345870972e-01</stage_threshold>
      <parent>15</parent>
      <next>-1</next></_>
    <_>
      <trees>
        <_>
          <_>
            <feature>
              <rects>
                <_>
                  14 6 1 6 -1.</_>
                <_>
                  14 9 1 3 2.</_></rects>
              <tilted>0</tilted></feature>
            <threshold>-1.3453745850711130e-05</threshold>
            <left_val>4.3427620632280339e-01</left_val>
            <right_val>-6.5413533834586479e-01</right_val></_></_>
        <_>
          <_>
            <feature>
              <rects>
                <_>
                  1 11 23 9 -1.</_>
                <_>
                  1 14 23 3 3.</_></rects>
              <tilted>0</tilted></feature>
            <threshold>2.3146329447627068e-02</threshold>
            <left_val>-8.0956048120913371e-01</left_val>
            <right_val>2.9191078336019860e-01</right_val></_></_>
        <_>
          <_>
            <feature>
              <rects>
                <_>
                  9 14 5 6 -1.</_>
                <_>
                  9 17 5 3 2.</_></rects>
              <tilted>0</tilted></feature>
            <threshold>6.4540043240413070e-05</threshold>
            <left_val>-4.5948501437215888e-01</left_val>
            <right_val>5.2927968460215979e-01</right_val></_></_>
        <_>
          <_>
            <feature>
              <rects>
                <_>
                  6 10 11 4 -1.</_>
                <_>
                  6 12 11 2 2.</_></rects>
              <tilted>0</tilted></feature>
            <threshold>-2.5990508220274933e-05</threshold>
            <left_val>3.2033906511495591e-01</left_val>
            <right_val>-6.7208607961366096e-01</right_val></_></_>
        <_>
          <_>
            <feature>
              <rects>
                <_>
                  11 5 6 13 -1.</_>
                <_>
                  13 5 2 13 3.</_></rects>
              <tilted>0</tilted></feature>
            <threshold>3.9367638528347015e-02</threshold>
            <left_val>-3.0648707203784242e-01</left_val>
            <right_val>7.5862141925068338e-01</right_val></_></_>
        <_>
          <_>
            <feature>
              <rects>
                <_>
                  1 8 9 2 -1.</_>
                <_>
                  4 8 3 2 3.</_></rects>
              <tilted>0</tilted></feature>
            <threshold>-1.4973630197346210e-02</threshold>
            <left_val>5.4620525410978493e-01</left_val>
            <right_val>-4.0217741098061449e-01</right_val></_></_>
        <_>
          <_>
            <feature>
              <rects>
                <_>
                  0 11 17 6 -1.</_>
                <_>
                  0 13 17 2 3.</_></rects>
              <tilted>0</tilted></feature>
            <threshold>1.5689348801970482e-03</threshold>
            <left_val>-9.6001755274857203e-01</left_val>
            <right_val>2.7996872260199240e-01</right_val></_></_></trees>
      <stage_threshold>-9.7410875558853149e-01</stage_threshold>
      <parent>16</parent>
      <next>-1</next></_>
    <_>
      <trees>
        <_>
          <_>
            <feature>
              <rects>
                <_>
                  5 4 18 6 -1.</_>
                <_>
                  5 4 9 3 2.</_>
                <_>
                  14 7 9 3 2.</_></rects>
              <tilted>0</tilted></feature>
            <threshold>2.3946622386574745e-02</threshold>
            <left_val>-6.2548764629388820e-01</left_val>
            <right_val>3.9073923639318442e-01</right_val></_></_>
        <_>
          <_>
            <feature>
              <rects>
                <_>
                  0 7 3 7 -1.</_>
                <_>
                  1 7 1 7 3.</_></rects>
              <tilted>0</tilted></feature>
            <threshold>1.7691008746623993e-02</threshold>
            <left_val>-3.5121808472483457e-01</left_val>
            <right_val>6.8084292773783428e-01</right_val></_></_>
        <_>
          <_>
            <feature>
              <rects>
                <_>
                  10 6 2 4 -1.</_>
                <_>
                  11 6 1 4 2.</_></rects>
              <tilted>0</tilted></feature>
            <threshold>-1.3876256998628378e-03</threshold>
            <left_val>7.0340819301313073e-01</left_val>
            <right_val>-2.9558273562993792e-01</right_val></_></_>
        <_>
          <_>
            <feature>
              <rects>
                <_>
                  18 2 6 2 -1.</_>
                <_>
                  21 2 3 2 2.</_></rects>
              <tilted>0</tilted></feature>
            <threshold>-2.7838372625410557e-04</threshold>
            <left_val>4.0227826144032686e-01</left_val>
            <right_val>-6.0151123144617880e-01</right_val></_></_>
        <_>
          <_>
            <feature>
              <rects>
                <_>
                  0 3 16 12 -1.</_>
                <_>
                  0 7 16 4 3.</_></rects>
              <tilted>0</tilted></feature>
            <threshold>2.1793961524963379e-02</threshold>
            <left_val>-9.5123730265249351e-01</left_val>
            <right_val>2.7377331369708813e-01</right_val></_></_>
        <_>
          <_>
            <feature>
              <rects>
                <_>
                  1 9 3 5 -1.</_>
                <_>
                  2 9 1 5 3.</_></rects>
              <tilted>0</tilted></feature>
            <threshold>1.4727719128131866e-02</threshold>
            <left_val>-3.0697098616585961e-01</left_val>
            <right_val>8.6074219934434693e-01</right_val></_></_></trees>
      <stage_threshold>-9.0800642967224121e-01</stage_threshold>
      <parent>17</parent>
      <next>-1</next></_>
    <_>
      <trees>
        <_>
          <_>
            <feature>
              <rects>
                <_>
                  4 5 1 2 -1.</_>
                <_>
                  4 6 1 1 2.</_></rects>
              <tilted>0</tilted></feature>
            <threshold>2.1001260029152036e-04</threshold>
            <left_val>3.6773255813954603e-01</left_val>
            <right_val>-8.1089743589743590e-01</right_val></_></_>
        <_>
          <_>
            <feature>
              <rects>
                <_>
                  0 18 12 6 -1.</_>
                <_>
                  6 18 6 6 2.</_></rects>
              <tilted>0</tilted></feature>
            <threshold>3.1052511185407639e-03</threshold>
            <left_val>-8.1056593079550088e-01</left_val>
            <right_val>2.8600398170410429e-01</right_val></_></_>
        <_>
          <_>
            <feature>
              <rects>
                <_>
                  14 5 9 17 -1.</_>
                <_>
                  17 5 3 17 3.</_></rects>
              <tilted>0</tilted></feature>
            <threshold>-2.7299195528030396e-02</threshold>
            <left_val>3.8606771712721411e-01</left_val>
            <right_val>-6.9450399184571887e-01</right_val></_></_>
        <_>
          <_>
            <feature>
              <rects>
                <_>
                  14 7 3 10 -1.</_>
                <_>
                  14 12 3 5 2.</_></rects>
              <tilted>0</tilted></feature>
            <threshold>-8.5599276644643396e-05</threshold>
            <left_val>2.9520019804659015e-01</left_val>
            <right_val>-7.8501529325017594e-01</right_val></_></_></trees>
      <stage_threshold>-9.2384105920791626e-01</stage_threshold>
      <parent>18</parent>
      <next>-1</next></_>
    <_>
      <trees>
        <_>
          <_>
            <feature>
              <rects>
                <_>
                  10 4 4 8 -1.</_>
                <_>
                  10 8 4 4 2.</_></rects>
              <tilted>0</tilted></feature>
            <threshold>-2.6960470131598413e-04</threshold>
            <left_val>4.3585526315790329e-01</left_val>
            <right_val>-6.7602040816326547e-01</right_val></_></_>
        <_>
          <_>
            <feature>
              <rects>
                <_>
                  0 11 21 9 -1.</_>
                <_>
                  0 14 21 3 3.</_></rects>
              <tilted>0</tilted></feature>
            <threshold>2.7300719171762466e-02</threshold>
            <left_val>-7.5316203307538321e-01</left_val>
            <right_val>3.9352474116983310e-01</right_val></_></_>
        <_>
          <_>
            <feature>
              <rects>
                <_>
                  10 8 8 6 -1.</_>
                <_>
                  10 8 4 3 2.</_>
                <_>
                  14 11 4 3 2.</_></rects>
              <tilted>0</tilted></feature>
            <threshold>8.6568074766546488e-04</threshold>
            <left_val>3.3647198583109855e-01</left_val>
            <right_val>-8.8473382243998955e-01</right_val></_></_>
        <_>
          <_>
            <feature>
              <rects>
                <_>
                  0 4 4 2 -1.</_>
                <_>
                  2 4 2 2 2.</_></rects>
              <tilted>0</tilted></feature>
            <threshold>3.1358085107058287e-04</threshold>
            <left_val>-4.9428464633900243e-01</left_val>
            <right_val>6.7456276083150124e-01</right_val></_></_>
        <_>
          <_>
            <feature>
              <rects>
                <_>
                  14 8 5 6 -1.</_>
                <_>
                  14 10 5 2 3.</_></rects>
              <tilted>0</tilted></feature>
            <threshold>-5.3594657219946384e-04</threshold>
            <left_val>-8.9735981066130110e-01</left_val>
            <right_val>3.2251543710232145e-01</right_val></_></_></trees>
      <stage_threshold>-1.3168380260467529e+00</stage_threshold>
      <parent>19</parent>
      <next>-1</next></_></stages></cascade>
</opencv_storage>
