<?xml version="1.0"?>
<opencv_storage>
<cascade>
  <stageType>BOOST</stageType>
  <featureType>LBP</featureType>
  <height>24</height>
  <width>24</width>
  <stageParams>
    <boostType>GAB</boostType>
    <minHitRate>9.9500000476837158e-01</minHitRate>
    <maxFalseAlarm>5.0000000000000000e-01</maxFalseAlarm>
    <weightTrimRate>9.4999999999999996e-01</weightTrimRate>
    <maxDepth>1</maxDepth>
    <maxWeakCount>100</maxWeakCount></stageParams>
  <featureParams>
    <maxCatCount>256</maxCatCount>
    <featSize>1</featSize></featureParams>
  <stageNum>18</stageNum>
  <stages>
    <!-- stage 0 -->
    <_>
      <maxWeakCount>1</maxWeakCount>
      <stageThreshold>9.6065574884414673e-01</stageThreshold>
      <weakClassifiers>
        <_>
          <internalNodes>
            0 -1 10 -2147253600 1476460544 81 1393627136 -2147426166
            -385843200 -2138926181 -888420981</internalNodes>
          <leafValues>
            -9.9322032928466797e-01 9.6065574884414673e-01</leafValues></_></weakClassifiers></_>
    <!-- stage 1 -->
    <_>
      <maxWeakCount>2</maxWeakCount>
      <stageThreshold>-5.1991362124681473e-02</stageThreshold>
      <weakClassifiers>
        <_>
          <internalNodes>
            0 -1 14 -788008754 -587104246 258 -787251200 -1878884150
            -1073741824 -2012642678 -687093602</internalNodes>
          <leafValues>
            -9.8615914583206177e-01 9.1639870405197144e-01</leafValues></_>
        <_>
          <internalNodes>
            0 -1 4 -753810869 1426145291 3 -674381293 -2138464256
            1074364420 -2147385202 -206587237</internalNodes>
          <leafValues>
            -9.4263917207717896e-01 9.3416780233383179e-01</leafValues></_></weakClassifiers></_>
    <!-- stage 2 -->
    <_>
      <maxWeakCount>2</maxWeakCount>
      <stageThreshold>-9.8627977073192596e-02</stageThreshold>
      <weakClassifiers>
        <_>
          <internalNodes>
            0 -1 20 1074249883 806453418 268435585 1091149955
            -2013035893 537526827 319406979 -637556513</internalNodes>
          <leafValues>
            -9.3706291913986206e-01 8.5350316762924194e-01</leafValues></_>
        <_>
          <internalNodes>
            0 -1 5 -795787055 1368981529 -1795095602 1562316801
            -939480696 -1970667391 134250523 -1098153909</internalNodes>
          <leafValues>
            -9.4477361440658569e-01 8.3843493461608887e-01</leafValues></_></weakClassifiers></_>
    <!-- stage 3 -->
    <_>
      <maxWeakCount>2</maxWeakCount>
      <stageThreshold>-7.1894124150276184e-02</stageThreshold>
      <weakClassifiers>
        <_>
          <internalNodes>
            0 -1 12 -2054968413 1078035091 21726111 -712703359
            1627507091 -255754232 -2071484029 -1345346898</internalNodes>
          <leafValues>
            -9.8566305637359619e-01 8.5669779777526855e-01</leafValues></_>
        <_>
          <internalNodes>
            0 -1 19 1091683151 -1845262193 1078039059 1086439527
            -1043598925 -1869905791 -384966234 -343954717</internalNodes>
          <leafValues>
            -9.0422928333282471e-01 9.1376894712448120e-01</leafValues></_></weakClassifiers></_>
    <!-- stage 4 -->
    <_>
      <maxWeakCount>1</maxWeakCount>
      <stageThreshold>8.4049081802368164e-01</stageThreshold>
      <weakClassifiers>
        <_>
          <internalNodes>
            0 -1 2 -212545064 -712572783 545326639 -687537905
            -2013064817 -905379453 -1803319121 -138738161</internalNodes>
          <leafValues>
            -1. 8.4049081802368164e-01</leafValues></_></weakClassifiers></_>
    <!-- stage 5 -->
    <_>
      <maxWeakCount>2</maxWeakCount>
      <stageThreshold>-1.2732526659965515e-01</stageThreshold>
      <weakClassifiers>
        <_>
          <internalNodes>
            0 -1 27 -1828531725 1363263491 -1809804971 -784236539
            -2145345073 285245448 -863403350 -209606766</internalNodes>
          <leafValues>
            -9.1034483909606934e-01 8.5161292552947998e-01</leafValues></_>
        <_>
          <internalNodes>
            0 -1 22 -1828457474 -1828605664 17521032 -788422656
            -528240385 -536117248 -1040072535 -1735539537</internalNodes>
          <leafValues>
            -9.4907534122467041e-01 7.8301954269409180e-01</leafValues></_></weakClassifiers></_>
    <!-- stage 6 -->
    <_>
      <maxWeakCount>2</maxWeakCount>
      <stageThreshold>-7.6230764389038086e-02</stageThreshold>
      <weakClassifiers>
        <_>
          <internalNodes>
            0 -1 30 -1906578861 98371 302579849 -1496985597 1073840587
            -1073741632 -2111781957 -1414818097</internalNodes>
          <leafValues>
            -9.4890511035919189e-01 7.9754602909088135e-01</leafValues></_>
        <_>
          <internalNodes>
            0 -1 8 -783059009 1365062405 268435859 -674037683 98524
            805374080 -2147450485 -458774373</internalNodes>
          <leafValues>
            -8.5179281234741211e-01 8.7267434597015381e-01</leafValues></_></weakClassifiers></_>
    <!-- stage 7 -->
    <_>
      <maxWeakCount>2</maxWeakCount>
      <stageThreshold>-3.8256090134382248e-02</stageThreshold>
      <weakClassifiers>
        <_>
          <internalNodes>
            0 -1 21 -258879265 -578305901 29704460 -238382847
            -1052579655 -2004844342 -2109228021 -262414653</internalNodes>
          <leafValues>
            -8.8435375690460205e-01 8.4967321157455444e-01</leafValues></_>
        <_>
          <internalNodes>
            0 -1 11 -241172641 1628504210 285816990 -746514399 25817789
            -1031798782 -1341021695 -342128597</internalNodes>
          <leafValues>
            -8.7621158361434937e-01 8.4609764814376831e-01</leafValues></_></weakClassifiers></_>
    <!-- stage 8 -->
    <_>
      <maxWeakCount>2</maxWeakCount>
      <stageThreshold>-8.9635960757732391e-02</stageThreshold>
      <weakClassifiers>
        <_>
          <internalNodes>
            0 -1 24 -217713673 -804708325 16800200 -754089979 452993195
            -804749271 977406153 -308739</internalNodes>
          <leafValues>
            -8.7837839126586914e-01 8.5526317358016968e-01</leafValues></_>
        <_>
          <internalNodes>
            0 -1 26 1675874287 613613831 17369167 -1048231805 1250605203
            612466816 -402028370 -257177205</internalNodes>
          <leafValues>
            -9.4489914178848267e-01 8.0506807565689087e-01</leafValues></_></weakClassifiers></_>
    <!-- stage 9 -->
    <_>
      <maxWeakCount>2</maxWeakCount>
      <stageThreshold>-1.1740747094154358e-01</stageThreshold>
      <weakClassifiers>
        <_>
          <internalNodes>
            0 -1 18 -1852591693 -774782833 -2147418037 -717225801
            -1349803890 -2012938208 -1062665049 -3833781</internalNodes>
          <leafValues>
            -9.0035587549209595e-01 7.9310345649719238e-01</leafValues></_>
        <_>
          <internalNodes>
            0 -1 31 -1488729721 -1606348671 -2129620845 -804741079
            -1844850037 -1870135167 1344372746 -33838965</internalNodes>
          <leafValues>
            -9.1051089763641357e-01 8.0106216669082642e-01</leafValues></_></weakClassifiers></_>
    <!-- stage 10 -->
    <_>
      <maxWeakCount>2</maxWeakCount>
      <stageThreshold>-2.2225564718246460e-01</stageThreshold>
      <weakClassifiers>
        <_>
          <internalNodes>
            0 -1 28 -1853373441 1436262865 268472578 -1866399717
            -534476909 -1056735069 285933732 -154959437</internalNodes>
          <leafValues>
            -9.2592591047286987e-01 7.5757575035095215e-01</leafValues></_>
        <_>
          <internalNodes>
            0 -1 13 -2058890445 -888913916 4266129 -1724536062
            -1073249575 -838123519 -1203437559 -68644143</internalNodes>
          <leafValues>
            -9.6561175584793091e-01 7.0367026329040527e-01</leafValues></_></weakClassifiers></_>
    <!-- stage 11 -->
    <_>
      <maxWeakCount>2</maxWeakCount>
      <stageThreshold>-1.7349347472190857e-01</stageThreshold>
      <weakClassifiers>
        <_>
          <internalNodes>
            0 -1 32 -842532445 2205978 805323030 -159087101 -905111413
            -2011000695 -939294589 -69359398</internalNodes>
          <leafValues>
            -9.1272729635238647e-01 7.7230769395828247e-01</leafValues></_>
        <_>
          <internalNodes>
            0 -1 6 -50296495 -581367675 -1040121346 -1924591607 34120328
            -1450696689 -897537797 -82074116</internalNodes>
          <leafValues>
            -9.4580119848251343e-01 7.7739548683166504e-01</leafValues></_></weakClassifiers></_>
    <!-- stage 12 -->
    <_>
      <maxWeakCount>2</maxWeakCount>
      <stageThreshold>-1.0106746107339859e-01</stageThreshold>
      <weakClassifiers>
        <_>
          <internalNodes>
            0 -1 15 -2126014569 -1321134834 666 -519139260 1342751420
            1259864320 -251408226 -17855812</internalNodes>
          <leafValues>
            -9.5488721132278442e-01 7.6047903299331665e-01</leafValues></_>
        <_>
          <internalNodes>
            0 -1 3 -786238637 831496717 16842773 -578711552 -2113895749
            -803024757 268461192 -7372664</internalNodes>
          <leafValues>
            -8.2888221740722656e-01 8.5381978750228882e-01</leafValues></_></weakClassifiers></_>
    <!-- stage 13 -->
    <_>
      <maxWeakCount>2</maxWeakCount>
      <stageThreshold>-1.2267299741506577e-01</stageThreshold>
      <weakClassifiers>
        <_>
          <internalNodes>
            0 -1 9 -213157105 1614905347 68747781 -668547833 75694087
            -2146525184 -2105298077 -5511025</internalNodes>
          <leafValues>
            -8.6348122358322144e-01 8.2410424947738647e-01</leafValues></_>
        <_>
          <internalNodes>
            0 -1 23 -750299670 -1022164909 -1256701038 -519454669
            140349683 1114272 -1308107829 -476992372</internalNodes>
          <leafValues>
            -9.3848639726638794e-01 7.4080824851989746e-01</leafValues></_></weakClassifiers></_>
    <!-- stage 14 -->
    <_>
      <maxWeakCount>2</maxWeakCount>
      <stageThreshold>-1.7016729712486267e-01</stageThreshold>
      <weakClassifiers>
        <_>
          <internalNodes>
            0 -1 1 1363279623 155354115 -1861812217 -2142666751
            -1853521533 -2097012728 -838107006 -81599989</internalNodes>
          <leafValues>
            -8.2312923669815063e-01 7.9084968566894531e-01</leafValues></_>
        <_>
          <internalNodes>
            0 -1 29 -520815834 2129929 1 1619495193 -1056894582
            998375427 34373632 -487616949</internalNodes>
          <leafValues>
            -9.6101695299148560e-01 7.2651606798171997e-01</leafValues></_></weakClassifiers></_>
    <!-- stage 15 -->
    <_>
      <maxWeakCount>2</maxWeakCount>
      <stageThreshold>-1.7019896209239960e-01</stageThreshold>
      <weakClassifiers>
        <_>
          <internalNodes>
            0 -1 7 -2147377187 17369296 136480212 -1757312231 8673932
            -1685448384 -2130623093 -1432673397</internalNodes>
          <leafValues>
            -9.3103450536727905e-01 7.1681416034698486e-01</leafValues></_>
        <_>
          <internalNodes>
            0 -1 17 -1996404515 32785 -1795092135 289734659 -2063548245
            -2137391088 -1962408296 -106225621</internalNodes>
          <leafValues>
            -8.8701313734054565e-01 7.8876715898513794e-01</leafValues></_></weakClassifiers></_>
    <!-- stage 16 -->
    <_>
      <maxWeakCount>2</maxWeakCount>
      <stageThreshold>5.5154375731945038e-02</stageThreshold>
      <weakClassifiers>
        <_>
          <internalNodes>
            0 -1 25 336139 21102656 1 262272 32904 -2147319679 32899
            -1530691382</internalNodes>
          <leafValues>
            -8.5256409645080566e-01 9.2361110448837280e-01</leafValues></_>
        <_>
          <internalNodes>
            0 -1 16 -805270377 -1056931824 1342193681 402751680
            -2147467064 -2130706432 35018 272630144</internalNodes>
          <leafValues>
            -8.6845672130584717e-01 9.4599467515945435e-01</leafValues></_></weakClassifiers></_>
    <!-- stage 17 -->
    <_>
      <maxWeakCount>1</maxWeakCount>
      <stageThreshold>1.</stageThreshold>
      <weakClassifiers>
        <_>
          <internalNodes>
            0 -1 0 0 536870915 0 0 32768 0 0 -2147483648</internalNodes>
          <leafValues>
            -1. 1.</leafValues></_></weakClassifiers></_></stages>
  <features>
    <_>
      <rect>
        0 0 5 8</rect></_>
    <_>
      <rect>
        0 2 3 7</rect></_>
    <_>
      <rect>
        0 3 7 7</rect></_>
    <_>
      <rect>
        0 7 5 3</rect></_>
    <_>
      <rect>
        0 9 4 3</rect></_>
    <_>
      <rect>
        0 11 7 3</rect></_>
    <_>
      <rect>
        0 11 8 3</rect></_>
    <_>
      <rect>
        0 11 8 4</rect></_>
    <_>
      <rect>
        1 12 3 2</rect></_>
    <_>
      <rect>
        2 9 1 2</rect></_>
    <_>
      <rect>
        3 4 6 3</rect></_>
    <_>
      <rect>
        5 7 5 5</rect></_>
    <_>
      <rect>
        6 4 2 3</rect></_>
    <_>
      <rect>
        6 6 2 2</rect></_>
    <_>
      <rect>
        6 12 4 4</rect></_>
    <_>
      <rect>
        7 12 3 4</rect></_>
    <_>
      <rect>
        8 1 4 2</rect></_>
    <_>
      <rect>
        8 18 4 2</rect></_>
    <_>
      <rect>
        9 1 2 5</rect></_>
    <_>
      <rect>
        10 1 2 6</rect></_>
    <_>
      <rect>
        10 2 2 5</rect></_>
    <_>
      <rect>
        10 3 2 4</rect></_>
    <_>
      <rect>
        10 11 4 4</rect></_>
    <_>
      <rect>
        11 8 3 4</rect></_>
    <_>
      <rect>
        11 15 3 3</rect></_>
    <_>
      <rect>
        12 8 4 4</rect></_>
    <_>
      <rect>
        15 7 3 3</rect></_>
    <_>
      <rect>
        15 10 3 2</rect></_>
    <_>
      <rect>
        15 12 2 2</rect></_>
    <_>
      <rect>
        18 0 2 7</rect></_>
    <_>
      <rect>
        19 6 1 2</rect></_>
    <_>
      <rect>
        20 7 1 2</rect></_>
    <_>
      <rect>
        20 8 1 2</rect></_></features></cascade>
</opencv_storage>
