<?xml version="1.0"?>
<opencv_storage>
<cascade>
  <stageType>BOOST</stageType>
  <featureType>HAAR</featureType>
  <height>24</height>
  <width>24</width>
  <stageParams>
    <boostType>GAB</boostType>
    <minHitRate>9.9500000476837158e-01</minHitRate>
    <maxFalseAlarm>5.0000000000000000e-01</maxFalseAlarm>
    <weightTrimRate>9.4999999999999996e-01</weightTrimRate>
    <maxDepth>1</maxDepth>
    <maxWeakCount>100</maxWeakCount></stageParams>
  <featureParams>
    <maxCatCount>0</maxCatCount>
    <featSize>1</featSize>
    <mode>BASIC</mode></featureParams>
  <stageNum>13</stageNum>
  <stages>
    <!-- stage 0 -->
    <_>
      <maxWeakCount>2</maxWeakCount>
      <stageThreshold>-8.1356771290302277e-02</stageThreshold>
      <weakClassifiers>
        <_>
          <internalNodes>
            0 -1 9 6.4712455496191978e-03</internalNodes>
          <leafValues>
            -9.5833331346511841e-01 8.8461536169052124e-01</leafValues></_>
        <_>
          <internalNodes>
            0 -1 27 2.5654628407210112e-03</internalNodes>
          <leafValues>
            -9.6597218513488770e-01 8.7946075201034546e-01</leafValues></_></weakClassifiers></_>
    <!-- stage 1 -->
    <_>
      <maxWeakCount>3</maxWeakCount>
      <stageThreshold>-8.2830286026000977e-01</stageThreshold>
      <weakClassifiers>
        <_>
          <internalNodes>
            0 -1 5 -3.5574570298194885e-02</internalNodes>
          <leafValues>
            9.8941797018051147e-01 -8.8625591993331909e-01</leafValues></_>
        <_>
          <internalNodes>
            0 -1 31 -2.9545962810516357e-02</internalNodes>
          <leafValues>
            9.3949669599533081e-01 -8.5249650478363037e-01</leafValues></_>
        <_>
          <internalNodes>
            0 -1 16 1.5729526057839394e-03</internalNodes>
          <leafValues>
            -8.7384754419326782e-01 9.1044956445693970e-01</leafValues></_></weakClassifiers></_>
    <!-- stage 2 -->
    <_>
      <maxWeakCount>2</maxWeakCount>
      <stageThreshold>-1.7321638762950897e-01</stageThreshold>
      <weakClassifiers>
        <_>
          <internalNodes>
            0 -1 4 1.8436545133590698e-01</internalNodes>
          <leafValues>
            -9.7604793310165405e-01 6.9957083463668823e-01</leafValues></_>
        <_>
          <internalNodes>
            0 -1 0 -7.1345612406730652e-02</internalNodes>
          <leafValues>
            8.3984345197677612e-01 -8.7278717756271362e-01</leafValues></_></weakClassifiers></_>
    <!-- stage 3 -->
    <_>
      <maxWeakCount>2</maxWeakCount>
      <stageThreshold>-5.5376578122377396e-02</stageThreshold>
      <weakClassifiers>
        <_>
          <internalNodes>
            0 -1 33 -6.5534219145774841e-02</internalNodes>
          <leafValues>
            8.7878787517547607e-01 -8.6138612031936646e-01</leafValues></_>
        <_>
          <internalNodes>
            0 -1 14 7.2671644389629364e-02</internalNodes>
          <leafValues>
            -9.1783297061920166e-01 8.0600953102111816e-01</leafValues></_></weakClassifiers></_>
    <!-- stage 4 -->
    <_>
      <maxWeakCount>3</maxWeakCount>
      <stageThreshold>-1.0151758193969727e+00</stageThreshold>
      <weakClassifiers>
        <_>
          <internalNodes>
            0 -1 26 5.6464271619915962e-03</internalNodes>
          <leafValues>
            -9.3296086788177490e-01 7.5565612316131592e-01</leafValues></_>
        <_>
          <internalNodes>
            0 -1 23 -1.2669349089264870e-02</internalNodes>
          <leafValues>
            6.9100815057754517e-01 -7.9456287622451782e-01</leafValues></_>
        <_>
          <internalNodes>
            0 -1 19 -2.0429173018783331e-03</internalNodes>
          <leafValues>
            7.1234798431396484e-01 -8.5245257616043091e-01</leafValues></_></weakClassifiers></_>
    <!-- stage 5 -->
    <_>
      <maxWeakCount>3</maxWeakCount>
      <stageThreshold>-7.7893835306167603e-01</stageThreshold>
      <weakClassifiers>
        <_>
          <internalNodes>
            0 -1 25 -1.2682990171015263e-02</internalNodes>
          <leafValues>
            7.3459714651107788e-01 -8.2010579109191895e-01</leafValues></_>
        <_>
          <internalNodes>
            0 -1 12 -6.1438113451004028e-02</internalNodes>
          <leafValues>
            6.7698985338211060e-01 -8.1217551231384277e-01</leafValues></_>
        <_>
          <internalNodes>
            0 -1 30 -1.0909105837345123e-01</internalNodes>
          <leafValues>
            9.1287016868591309e-01 -6.3582235574722290e-01</leafValues></_></weakClassifiers></_>
    <!-- stage 6 -->
    <_>
      <maxWeakCount>3</maxWeakCount>
      <stageThreshold>-9.5259457826614380e-01</stageThreshold>
      <weakClassifiers>
        <_>
          <internalNodes>
            0 -1 35 1.0465516708791256e-02</internalNodes>
          <leafValues>
            -6.9659441709518433e-01 8.1227439641952515e-01</leafValues></_>
        <_>
          <internalNodes>
            0 -1 1 1.1694047600030899e-02</internalNodes>
          <leafValues>
            -8.9123791456222534e-01 5.6635564565658569e-01</leafValues></_>
        <_>
          <internalNodes>
            0 -1 24 1.9305132329463959e-02</internalNodes>
          <leafValues>
            -8.6218637228012085e-01 6.3523775339126587e-01</leafValues></_></weakClassifiers></_>
    <!-- stage 7 -->
    <_>
      <maxWeakCount>2</maxWeakCount>
      <stageThreshold>-1.3963909447193146e-01</stageThreshold>
      <weakClassifiers>
        <_>
          <internalNodes>
            0 -1 15 2.6879265904426575e-01</internalNodes>
          <leafValues>
            -9.0476191043853760e-01 6.5517240762710571e-01</leafValues></_>
        <_>
          <internalNodes>
            0 -1 6 -7.0390194654464722e-02</internalNodes>
          <leafValues>
            7.6512283086776733e-01 -7.2975027561187744e-01</leafValues></_></weakClassifiers></_>
    <!-- stage 8 -->
    <_>
      <maxWeakCount>2</maxWeakCount>
      <stageThreshold>-1.6093945503234863e-01</stageThreshold>
      <weakClassifiers>
        <_>
          <internalNodes>
            0 -1 10 2.0416406914591789e-02</internalNodes>
          <leafValues>
            -9.1928249597549438e-01 5.4376655817031860e-01</leafValues></_>
        <_>
          <internalNodes>
            0 -1 18 1.7548423260450363e-02</internalNodes>
          <leafValues>
            -7.0470601320266724e-01 7.8098696470260620e-01</leafValues></_></weakClassifiers></_>
    <!-- stage 9 -->
    <_>
      <maxWeakCount>4</maxWeakCount>
      <stageThreshold>-5.4969435930252075e-01</stageThreshold>
      <weakClassifiers>
        <_>
          <internalNodes>
            0 -1 32 -1.0040187090635300e-01</internalNodes>
          <leafValues>
            8.9922481775283813e-01 -6.7836254835128784e-01</leafValues></_>
        <_>
          <internalNodes>
            0 -1 11 4.5995332300662994e-02</internalNodes>
          <leafValues>
            -9.0619379281997681e-01 6.1623942852020264e-01</leafValues></_>
        <_>
          <internalNodes>
            0 -1 2 6.4382910728454590e-02</internalNodes>
          <leafValues>
            -9.7353565692901611e-01 4.8500904440879822e-01</leafValues></_>
        <_>
          <internalNodes>
            0 -1 22 -3.5650720819830894e-03</internalNodes>
          <leafValues>
            5.4985296726226807e-01 -7.9989480972290039e-01</leafValues></_></weakClassifiers></_>
    <!-- stage 10 -->
    <_>
      <maxWeakCount>4</maxWeakCount>
      <stageThreshold>-3.1740522384643555e-01</stageThreshold>
      <weakClassifiers>
        <_>
          <internalNodes>
            0 -1 17 -1.1476766318082809e-02</internalNodes>
          <leafValues>
            6.4133739471435547e-01 -7.7859777212142944e-01</leafValues></_>
        <_>
          <internalNodes>
            0 -1 28 4.7013755887746811e-02</internalNodes>
          <leafValues>
            -8.6447191238403320e-01 5.2881866693496704e-01</leafValues></_>
        <_>
          <internalNodes>
            0 -1 7 6.7392596974968910e-03</internalNodes>
          <leafValues>
            -5.3070354461669922e-01 8.4288430213928223e-01</leafValues></_>
        <_>
          <internalNodes>
            0 -1 13 -1.1299103498458862e-03</internalNodes>
          <leafValues>
            -9.3854457139968872e-01 4.8278012871742249e-01</leafValues></_></weakClassifiers></_>
    <!-- stage 11 -->
    <_>
      <maxWeakCount>3</maxWeakCount>
      <stageThreshold>-7.3444390296936035e-01</stageThreshold>
      <weakClassifiers>
        <_>
          <internalNodes>
            0 -1 34 5.3042843937873840e-02</internalNodes>
          <leafValues>
            -8.5660380125045776e-01 6.7761194705963135e-01</leafValues></_>
        <_>
          <internalNodes>
            0 -1 29 -1.5665809810161591e-01</internalNodes>
          <leafValues>
            9.7307705879211426e-01 -5.3703957796096802e-01</leafValues></_>
        <_>
          <internalNodes>
            0 -1 20 5.8344259858131409e-02</internalNodes>
          <leafValues>
            -8.5091716051101685e-01 6.8829613924026489e-01</leafValues></_></weakClassifiers></_>
    <!-- stage 12 -->
    <_>
      <maxWeakCount>3</maxWeakCount>
      <stageThreshold>-5.8976864814758301e-01</stageThreshold>
      <weakClassifiers>
        <_>
          <internalNodes>
            0 -1 8 -3.4708809107542038e-03</internalNodes>
          <leafValues>
            8.8235294818878174e-01 -7.3170733451843262e-01</leafValues></_>
        <_>
          <internalNodes>
            0 -1 21 -1.2642348883673549e-03</internalNodes>
          <leafValues>
            8.2446521520614624e-01 -7.5244420766830444e-01</leafValues></_>
        <_>
          <internalNodes>
            0 -1 3 -1.8201903003500775e-05</internalNodes>
          <leafValues>
            8.9438289403915405e-01 -6.5246444940567017e-01</leafValues></_></weakClassifiers></_></stages>
  <features>
    <_>
      <rects>
        <_>
          1 1 9 23 -1.</_>
        <_>
          4 1 3 23 3.</_></rects>
      <tilted>0</tilted></_>
    <_>
      <rects>
        <_>
          1 2 2 14 -1.</_>
        <_>
          1 9 2 7 2.</_></rects>
      <tilted>0</tilted></_>
    <_>
      <rects>
        <_>
          1 3 11 12 -1.</_>
        <_>
          1 9 11 6 2.</_></rects>
      <tilted>0</tilted></_>
    <_>
      <rects>
        <_>
          1 4 6 2 -1.</_>
        <_>
          3 4 2 2 3.</_></rects>
      <tilted>0</tilted></_>
    <_>
      <rects>
        <_>
          1 5 16 18 -1.</_>
        <_>
          1 11 16 6 3.</_></rects>
      <tilted>0</tilted></_>
    <_>
      <rects>
        <_>
          1 6 9 10 -1.</_>
        <_>
          4 6 3 10 3.</_></rects>
      <tilted>0</tilted></_>
    <_>
      <rects>
        <_>
          1 8 9 9 -1.</_>
        <_>
          4 8 3 9 3.</_></rects>
      <tilted>0</tilted></_>
    <_>
      <rects>
        <_>
          1 11 3 4 -1.</_>
        <_>
          2 11 1 4 3.</_></rects>
      <tilted>0</tilted></_>
    <_>
      <rects>
        <_>
          1 13 4 2 -1.</_>
        <_>
          3 13 2 2 2.</_></rects>
      <tilted>0</tilted></_>
    <_>
      <rects>
        <_>
          2 6 20 2 -1.</_>
        <_>
          2 7 20 1 2.</_></rects>
      <tilted>0</tilted></_>
    <_>
      <rects>
        <_>
          4 12 15 9 -1.</_>
        <_>
          4 15 15 3 3.</_></rects>
      <tilted>0</tilted></_>
    <_>
      <rects>
        <_>
          5 15 15 9 -1.</_>
        <_>
          10 15 5 9 3.</_></rects>
      <tilted>0</tilted></_>
    <_>
      <rects>
        <_>
          7 0 16 9 -1.</_>
        <_>
          7 3 16 3 3.</_></rects>
      <tilted>0</tilted></_>
    <_>
      <rects>
        <_>
          7 4 4 2 -1.</_>
        <_>
          9 4 2 2 2.</_></rects>
      <tilted>0</tilted></_>
    <_>
      <rects>
        <_>
          7 4 17 8 -1.</_>
        <_>
          7 8 17 4 2.</_></rects>
      <tilted>0</tilted></_>
    <_>
      <rects>
        <_>
          8 2 16 21 -1.</_>
        <_>
          8 9 16 7 3.</_></rects>
      <tilted>0</tilted></_>
    <_>
      <rects>
        <_>
          8 9 3 10 -1.</_>
        <_>
          9 9 1 10 3.</_></rects>
      <tilted>0</tilted></_>
    <_>
      <rects>
        <_>
          9 5 4 10 -1.</_>
        <_>
          9 5 2 5 2.</_>
        <_>
          11 10 2 5 2.</_></rects>
      <tilted>0</tilted></_>
    <_>
      <rects>
        <_>
          9 5 5 6 -1.</_>
        <_>
          9 7 5 2 3.</_></rects>
      <tilted>0</tilted></_>
    <_>
      <rects>
        <_>
          9 6 2 10 -1.</_>
        <_>
          9 6 1 5 2.</_>
        <_>
          10 11 1 5 2.</_></rects>
      <tilted>0</tilted></_>
    <_>
      <rects>
        <_>
          10 0 6 12 -1.</_>
        <_>
          10 6 6 6 2.</_></rects>
      <tilted>0</tilted></_>
    <_>
      <rects>
        <_>
          11 9 2 5 -1.</_>
        <_>
          12 9 1 5 2.</_></rects>
      <tilted>0</tilted></_>
    <_>
      <rects>
        <_>
          12 7 2 12 -1.</_>
        <_>
          12 11 2 4 3.</_></rects>
      <tilted>0</tilted></_>
    <_>
      <rects>
        <_>
          12 11 4 12 -1.</_>
        <_>
          12 11 2 6 2.</_>
        <_>
          14 17 2 6 2.</_></rects>
      <tilted>0</tilted></_>
    <_>
      <rects>
        <_>
          12 11 6 10 -1.</_>
        <_>
          14 11 2 10 3.</_></rects>
      <tilted>0</tilted></_>
    <_>
      <rects>
        <_>
          12 12 6 8 -1.</_>
        <_>
          12 12 3 4 2.</_>
        <_>
          15 16 3 4 2.</_></rects>
      <tilted>0</tilted></_>
    <_>
      <rects>
        <_>
          13 7 4 6 -1.</_>
        <_>
          13 7 2 3 2.</_>
        <_>
          15 10 2 3 2.</_></rects>
      <tilted>0</tilted></_>
    <_>
      <rects>
        <_>
          13 12 6 2 -1.</_>
        <_>
          15 12 2 2 3.</_></rects>
      <tilted>0</tilted></_>
    <_>
      <rects>
        <_>
          14 0 2 24 -1.</_>
        <_>
          14 8 2 8 3.</_></rects>
      <tilted>0</tilted></_>
    <_>
      <rects>
        <_>
          14 6 9 18 -1.</_>
        <_>
          17 6 3 18 3.</_></rects>
      <tilted>0</tilted></_>
    <_>
      <rects>
        <_>
          14 7 9 10 -1.</_>
        <_>
          17 7 3 10 3.</_></rects>
      <tilted>0</tilted></_>
    <_>
      <rects>
        <_>
          15 7 9 5 -1.</_>
        <_>
          18 7 3 5 3.</_></rects>
      <tilted>0</tilted></_>
    <_>
      <rects>
        <_>
          15 7 9 9 -1.</_>
        <_>
          18 7 3 9 3.</_></rects>
      <tilted>0</tilted></_>
    <_>
      <rects>
        <_>
          15 7 9 14 -1.</_>
        <_>
          18 7 3 14 3.</_></rects>
      <tilted>0</tilted></_>
    <_>
      <rects>
        <_>
          18 0 6 23 -1.</_>
        <_>
          21 0 3 23 2.</_></rects>
      <tilted>0</tilted></_>
    <_>
      <rects>
        <_>
          20 9 4 3 -1.</_>
        <_>
          22 9 2 3 2.</_></rects>
      <tilted>0</tilted></_></features></cascade>
</opencv_storage>
